[[[-1.3895823035514463], [2.676582622268003], [-0.4681173449879342], [-1.49768855128879], [2.381161816139104], [0.3712459091518042], [1.5273603574008252], [1.2321955141649463], [-0.29537216343043143], [-1.1936663768393798], [1.7337323366179094], [-0.5146546830189902], [-1.9447030403223313], [-3.1764746227316296], [1.4942474474954732], [0.35123829201425016], [0.46299066091801705], [-0.8360679940170834], [0.9899222909889136], [-0.7246961818858846], [-0.3426179989277673], [-0.18208727095054528], [0.3201198521244014], [0.36704250282778783], [0.4150210344060552], [-0.49077843298638], [-3.516975292725167], [-2.248808299782386], [-0.5299403598424804], [1.4547076426193635], [1.22790912239386], [-0.36466955865909617], [0.41801489975899814], [-0.1508386296407626], [-1.5675554537544425], [0.10521410256038029], [-1.0314237907052548], [0.10738974648839644], [0.4797483515363981], [0.1781214867256649], [0.15595664153801564], [-1.4594063978616518], [0.6665095242517601], [-1.829559542282138], [1.1192038555995298], [-0.6154197078229432], [1.2117040058644006], [0.2876351782194909], [1.137389992685421], [0.12385599427572858], [-0.6378782845445471], [-1.1460652193088368], [1.0799284380306737], [0.5057706963607251], [-0.48090072085766017], [-1.252553872018402], [0.40567552736760376], [-0.3656770050240939], [0.5000125595746352], [0.5074733191627573], [-1.1325996374386667], [-0.1601385685880792], [1.2290626741105755], [1.5008053626627254]], [[-1.293865990878731], [-0.19124920548916838], [-1.7293265772418682], [-0.34102314558224417], [2.0168298677568757], [1.1838688515790488], [1.1406839731230363], [-0.7364583363638436], [1.516811870547019], [1.0990709977359634], [0.4999261877901305], [-0.18562627226313133], [-0.2675266454711489], [0.1541021915558041], [-0.9450783949807006], [1.0070290108293314], [0.41596698158078604], [-0.6962215042287834], [0.45297645983222223], [-1.5632858558450407], [-0.021199444605690305], [1.3349544772380577], [1.2171076537018448], [-0.999622337418622], [-1.0445330690178067], [-1.9039309895088365], [0.791309427356081], [-0.3409655144180022], [-0.8464951179557654], [-0.0653566930508242], [1.2492834226207687], [0.29312168985075476], [0.44093535009661866], [-0.5781721157180304], [-0.4516967111797403], [1.2968652799076388], [0.5035346582550223], [-0.6254174592475867], [0.8470303850675296], [0.39780884542239037], [-0.2522974487717379], [-1.1214641064949233], [-0.5230553468331292], [-0.8906948056895289], [-0.8935573309881503], [0.5976196082090106], [-0.25988282889794206], [-0.5087321711972144], [0.5240918464930765], [-0.7570013682912367], [-1.2196744861780133], [0.5495014716489892], [2.2489045988727896], [0.2377797912067532], [-0.15905726502986378], [-0.881645139680074], [-1.4176837074211723], [1.958187473894902], [-1.3972630882237596], [-0.15034440650818534], [-0.24513661921805194], [0.09678428330055387], [-1.0427759815443058], [1.778346044268367]], [[-1.1126587909331265], [0.06295638380477055], [-0.3995328748011531], [0.769532313394339], [0.9960769029662331], [-0.6727806437769811], [-0.6537596139768106], [-1.7503980952712364], [0.5682888672152331], [-0.3032955664045846], [0.20141283310169608], [-0.8672427301244904], [-1.721890248776769], [-1.0536878587529863], [1.1718644653869443], [0.05464532937251815], [1.6955979517598208], [-0.1769118440686435], [-0.26601888291986603], [-3.0844751763483482], [-1.222062405153709], [0.9859374772162154], [-0.8213586721729754], [0.8716827988306193], [-0.3370605819519479], [1.0139602370357181], [-0.7487669599631658], [0.20121351089040998], [-0.9062209866081784], [1.4075613483418026], [-0.19280237302795017], [-1.310374554103916], [0.6769166769990039], [-0.4112135926495681], [0.048977088485340596], [-0.5101005064311336], [-0.35775897498324005], [-0.4862608752997919], [-0.08986875067239435], [0.875718690209599], [-1.5572113956217593], [-0.5666910055503982], [-1.8441151221049232], [3.2944488134222434], [0.2821759240264055], [0.519012490461128], [-1.065363926733201], [-1.0131977599390027], [0.9928185901644385], [-0.03827173693592882], [-0.4471609760882177], [-0.4106669553702613], [-2.020489505495433], [-1.507782938314512], [0.19552134190827886], [0.305404721458216], [-1.1546612516175472], [0.9003418151354804], [-0.48616121690256703], [-0.4231376650609985], [-0.6334525804627125], [0.2835207960290504], [-1.6217132068162714], [-0.29746925653458883]], [[0.9031201933616001]]]