[[[-1.3895823035514463], [2.6700690987267337], [-0.4681173449879342], [-1.49768855128879], [2.3701010195368535], [0.3688765315397507], [1.5236367749869493], [1.226413619517077], [-0.29466780604436077], [-1.1936663768393798], [1.7311229979167677], [-0.5146546830189902], [-1.9447030403223313], [-3.1764746227316296], [1.4887686935800872], [0.34927315799610426], [0.4605521881397062], [-0.8360679940170834], [0.9858092308035504], [-0.7246961818858846], [-0.3426179989277673], [-0.18166775067213742], [0.31675846689447673], [0.3549370354942799], [0.4149028040550582], [-0.49077843298638], [-3.516975292725167], [-2.248808299782386], [-0.5299403598424804], [1.4475920904267001], [1.2209376018298086], [-0.36466955865909617], [0.41469564210632476], [-0.15114319711866916], [-1.5675554537544425], [0.10476269604857005], [-1.0314237907052548], [0.10922068791970979], [0.4789737212038658], [0.1680409165574241], [0.15512182116925005], [-1.4594063978616518], [0.6629133343234964], [-1.829559542282138], [1.1171142578143436], [-0.6154197078229432], [1.2055050928016784], [0.28527090106031133], [1.1328620939835499], [0.12213668618299597], [-0.6378782845445471], [-1.1460652193088368], [1.079587529873995], [0.5056997985094798], [-0.48090072085766017], [-1.252553872018402], [0.40456232827937294], [-0.3656770050240939], [0.49868500642770974], [0.5102328896729525], [-1.1325996374386667], [-0.15793647793760915], [1.225321010930476], [1.4990440495635706]], [[-1.293865990878731], [-0.1916635790677994], [-1.7293265772418682], [-0.34100987042345327], [2.013666960500801], [1.1841408675477254], [1.1398510705239415], [-0.7364583363638436], [1.5174808516378409], [1.0983245316962302], [0.5004909889169722], [-0.18619754611406208], [-0.2675879139489317], [0.1539266458685814], [-0.946657069455804], [0.9956257636500423], [0.4154309690356932], [-0.6962215042287834], [0.4522178907372781], [-1.5632858558450407], [-0.021199444605690305], [1.33297463773075], [1.2140108544250647], [-0.999622337418622], [-1.0445330690178067], [-1.9039309895088365], [0.7888842421480089], [-0.3409655144180022], [-0.8464951179557654], [-0.06539182812647196], [1.2492685720121666], [0.28939044829856503], [0.4411949357921601], [-0.5781721157180304], [-0.45125532948547603], [1.296297809185023], [0.5006307997889139], [-0.6254479442913329], [0.8470454400997398], [0.3952425148031888], [-0.25453740416918214], [-1.1214641064949233], [-0.5231036859995533], [-0.8906948056895289], [-0.8935573309881503], [0.596441346771038], [-0.25988282889794206], [-0.5081654034576302], [0.5240918464930765], [-0.7567429663015496], [-1.2187387173928415], [0.5476124905335868], [2.2486063227581727], [0.2377797912067532], [-0.16512926864222963], [-0.881645139680074], [-1.4176837074211723], [1.956453195698297], [-1.3972630882237596], [-0.15034440650818534], [-0.24513661921805194], [0.09756252128972637], [-1.0427759815443058], [1.7761138119938205]], [[-1.1126587909331265], [0.06295638380477055], [-0.39903259998983437], [0.7673799486777733], [0.9946133557306607], [-0.6739194993695737], [-0.6537596139770431], [-1.7503980952712364], [0.5664983337338646], [-0.30329557143220154], [0.20141158072551354], [-0.8671268586934989], [-1.721890248776769], [-1.0536878587529863], [1.1718644653869443], [0.05456814363336809], [1.6952729280242582], [-0.17820028819612693], [-0.26598734241328054], [-3.0844751763483482], [-1.222062405153709], [0.9858572217864426], [-0.8213586721729754], [0.8719109333787228], [-0.33706055959903586], [1.0137176398593886], [-0.7487669599631658], [0.2011037801382947], [-0.9062209866081784], [1.4054007839700646], [-0.1954594382822113], [-1.310374554103916], [0.6768457852503705], [-0.4131313443031457], [0.047918831743466256], [-0.5103978338707438], [-0.35779711756617977], [-0.4862613440127852], [-0.08986875067420154], [0.8737087476612203], [-1.5572114760237017], [-0.5666910519103319], [-1.8441151221049232], [3.294043522971817], [0.2820650156798687], [0.5188519921286333], [-1.065363926733201], [-1.0131977599390027], [0.9918037869482398], [-0.03689392025902182], [-0.4472730697460966], [-0.409905383424691], [-2.020489505495433], [-1.507782938314512], [0.19552134190827886], [0.3053217304877425], [-1.154660960684984], [0.9001790308768647], [-0.48616121690256703], [-0.4231376650609985], [-0.6334525804627125], [0.28345338333607545], [-1.6217132068162714], [-0.29756684712871057]], [[0.9031018625647618]]]