[[[-1.3895823035514463], [2.6851279943611703], [-0.4681173449879342], [-1.49768855128879], [2.38226625935083], [0.3725122761723304], [1.5253175342996323], [1.23322270051048], [-0.2958129465913855], [-1.1936663768393798], [1.7364060885009935], [-0.5146546830189902], [-1.9447030403223313], [-3.1764746227316296], [1.4938418400227234], [0.3512083616282977], [0.4614466920150474], [-0.8360679940170834], [0.9927130315314535], [-0.7246961818858846], [-0.3426179989277673], [-0.18168198228965532], [0.319276993905407], [0.3607503110951399], [0.4127770013299199], [-0.49077843298638], [-3.516975292725167], [-2.248808299782386], [-0.5299403598424804], [1.4576888944243096], [1.2282952169417176], [-0.36466955865909617], [0.4161052469340774], [-0.1511680843935234], [-1.5675554537544425], [0.09242152585663375], [-1.0314237907052548], [0.10081067723484692], [0.4813710251620882], [0.17180265124450875], [0.15626547200605617], [-1.4594063978616518], [0.6668385177603994], [-1.829559542282138], [1.1183084199476543], [-0.6154197078229432], [1.2123072081827126], [0.28611046967398884], [1.1317025797319589], [0.12373064495266914], [-0.6378782845445471], [-1.1460652193088368], [1.0846927505643726], [0.503106062123344], [-0.48090072085766017], [-1.252553872018402], [0.4032791671877961], [-0.3656770050240939], [0.5050630837515551], [0.5085905786713619], [-1.1325996374386667], [-0.16069715349436522], [1.2274072600856605], [1.5005010368871898]], [[-1.293865990878731], [-0.1907596528166594], [-1.7293265772418682], [-0.3411280925074676], [2.0164791992894493], [1.1831600967218947], [1.1424863041854432], [-0.7364583363638436], [1.5164535672913626], [1.097601335491961], [0.4979229140924725], [-0.1853369872739699], [-0.2675112836103031], [0.15686068518328214], [-0.9487830636264836], [0.9989060511394586], [0.415150816755004], [-0.6962215042287834], [0.451396860036858], [-1.5632858558450407], [-0.021199444605690305], [1.3342905759404058], [1.2165040831370268], [-0.999622337418622], [-1.0445330690178067], [-1.9039309895088365], [0.78871784212531], [-0.3409655144180022], [-0.8464951179557654], [-0.06411699299757795], [1.2509955119925666], [0.28847047913515833], [0.4408478749356347], [-0.5781721157180304], [-0.4505774905568374], [1.2983716302152006], [0.49395781209107487], [-0.6254820126634772], [0.8470285789504254], [0.3971843487504714], [-0.25170314990222786], [-1.1214641064949233], [-0.5233649769114737], [-0.8906948056895289], [-0.8935573309881503], [0.5978182835159077], [-0.25988282889794206], [-0.5082734116392749], [0.5240918464930765], [-0.7558493104515343], [-1.2184684726038981], [0.5485238749718161], [2.2537420449113608], [0.2377797912067532], [-0.17090938123886798], [-0.881645139680074], [-1.4176837074211723], [1.9575776417916646], [-1.3972630882237596], [-0.15034440650818534], [-0.24513661921805194], [0.0993837769210487], [-1.0427759815443058], [1.777895055084671]], [[-1.1126587909331265], [0.06295638380477055], [-0.40010854389179623], [0.764843175690549], [0.9926608232067158], [-0.6749079105200476], [-0.6537596139768106], [-1.7503980952712364], [0.5672386751757533], [-0.30329556058482643], [0.20142605538834268], [-0.8662692753260958], [-1.721890248776769], [-1.0536878587529863], [1.1718644653869443], [0.05432118149335986], [1.6962380042122025], [-0.17621970045382696], [-0.2701953851296382], [-3.0844751763483482], [-1.222062405153709], [0.984992557861382], [-0.8213586721729754], [0.8728616188395417], [-0.33706097706177895], [1.015539890669366], [-0.7487669599631658], [0.20147829974719278], [-0.9062209866081784], [1.4060142157626228], [-0.19115728400415877], [-1.310374554103916], [0.6773425051780095], [-0.41010037595977117], [0.04824312376278289], [-0.5097988643462039], [-0.35743090434531094], [-0.4862589561798245], [-0.08986875067239435], [0.8739258418580392], [-1.5572109152875475], [-0.5666909005658676], [-1.8441151221049232], [3.294581738602513], [0.28289776019721574], [0.518961302098677], [-1.065363926733201], [-1.0131977599390027], [0.9918884487321611], [-0.0350051968002115], [-0.451461881984047], [-0.4111331052009846], [-2.020489505495433], [-1.507782938314512], [0.19552134190827886], [0.30650577084293246], [-1.1546630641108249], [0.8999387526726061], [-0.48616121690256703], [-0.4231376650609985], [-0.6334525804627125], [0.2843238816193088], [-1.6217132068162714], [-0.29666224088241516]], [[0.9080989249926992]]]