[[[-1.3895823035514463], [2.67237027931432], [-0.4681173449879342], [-1.49768855128879], [2.3734359331392154], [0.3696430994951451], [1.524525954665159], [1.2280729694407275], [-0.29474481494473387], [-1.1936663768393798], [1.7319994802427143], [-0.5146546830189902], [-1.9447030403223313], [-3.1764746227316296], [1.4905011390121563], [0.34986517114158106], [0.46140986691494523], [-0.8360679940170834], [0.9867888760507018], [-0.7246961818858846], [-0.3426179989277673], [-0.18183183336558256], [0.3173767509829387], [0.3569158045175632], [0.4147859804282208], [-0.49077843298638], [-3.516975292725167], [-2.248808299782386], [-0.5299403598424804], [1.4497485772405476], [1.222795639767462], [-0.36466955865909617], [0.41549821359276135], [-0.1510538352664291], [-1.5675554537544425], [0.10569564284599818], [-1.0314237907052548], [0.10811068861111682], [0.47938645778240774], [0.17025918160592474], [0.15535410036917838], [-1.4594063978616518], [0.6639904098802443], [-1.829559542282138], [1.1181075092873973], [-0.6154197078229432], [1.207292144529311], [0.2859330992042245], [1.1339576408240166], [0.12257439515721351], [-0.6378782845445471], [-1.1460652193088368], [1.0801833767004232], [0.5057720480259146], [-0.48090072085766017], [-1.252553872018402], [0.40513180106636165], [-0.3656770050240939], [0.49917984966558243], [0.5096632820825254], [-1.1325996374386667], [-0.1584526965422061], [1.2264045660731413], [1.4998805242937328]], [[-1.293865990878731], [-0.19144756124746], [-1.7293265772418682], [-0.34101019597719784], [2.014487201482797], [1.1841128980343976], [1.1401000622869504], [-0.7364583363638436], [1.5173145919847328], [1.0983135481055017], [0.5000906731399724], [-0.18585863883395132], [-0.26755148006727847], [0.15410214710935008], [-0.946223388609421], [0.9978217315850421], [0.41534379849432584], [-0.6962215042287834], [0.452348704801537], [-1.5632858558450407], [-0.021199444605690305], [1.3335733094857645], [1.2147708996539028], [-0.999622337418622], [-1.0445330690178067], [-1.9039309895088365], [0.7892831936813216], [-0.3409655144180022], [-0.8464951179557654], [-0.06541273210772042], [1.2494315989181917], [0.2902336133412191], [0.44123279789486536], [-0.5781721157180304], [-0.4513580538217573], [1.296503550981063], [0.5018217577946045], [-0.6254481135288391], [0.8470357602651], [0.395977535633953], [-0.2535465609255351], [-1.1214641064949233], [-0.5229872910580419], [-0.8906948056895289], [-0.8935573309881503], [0.5968765065878844], [-0.25988282889794206], [-0.5083734993973631], [0.5240918464930765], [-0.7567126929532069], [-1.2188350127555665], [0.5479738105616334], [2.2491318797701663], [0.2377797912067532], [-0.16414940141413478], [-0.881645139680074], [-1.4176837074211723], [1.9569665125026987], [-1.3972630882237596], [-0.15034440650818534], [-0.24513661921805194], [0.0972640784157818], [-1.0427759815443058], [1.7765147274965418]], [[-1.1126587909331265], [0.06295638380477055], [-0.3995100292814185], [0.7674780628232536], [0.9946169568595015], [-0.6737217059788841], [-0.6537596139770431], [-1.7503980952712364], [0.5671329064848413], [-0.303295571420498], [0.20141162187622688], [-0.8672136174680959], [-1.721890248776769], [-1.0536878587529863], [1.1718644653869443], [0.05455844242480277], [1.6953579140805977], [-0.17772289027587168], [-0.2661645574121085], [-3.0844751763483482], [-1.222062405153709], [0.9858279542041618], [-0.8213586721729754], [0.871831685858958], [-0.33706055961078096], [1.0138467374591071], [-0.7487669599631658], [0.20111601503109763], [-0.9062209866081784], [1.4058328780727565], [-0.19449726107332496], [-1.310374554103916], [0.6768603598316861], [-0.4123871581332159], [0.04842734329412783], [-0.5102469119012119], [-0.35778132384981187], [-0.4862613147168828], [-0.08986875067420148], [0.8743906167359184], [-1.557211475456725], [-0.5666910509754823], [-1.8441151221049232], [3.2941119459265815], [0.2821337881426595], [0.5188707352783009], [-1.065363926733201], [-1.0131977599390027], [0.9923537620278103], [-0.03732585028369387], [-0.44725740793709867], [-0.4103384456727846], [-2.020489505495433], [-1.507782938314512], [0.19552134190827886], [0.3054010037892389], [-1.154660964933093], [0.9001815709653568], [-0.48616121690256703], [-0.4231376650609985], [-0.6334525804627125], [0.2835168720404455], [-1.6217132068162714], [-0.2975257084157062]], [[0.903231094558081]]]