[[[-1.3895823035514463], [2.672275957549115], [-0.4681173449879342], [-1.49768855128879], [2.3741094267091727], [0.3695228581501767], [1.5251629341873183], [1.2283826595904532], [-0.29478515761454976], [-1.1936663768393798], [1.73251681777681], [-0.5146546830189902], [-1.9447030403223313], [-3.1764746227316296], [1.4912233594141677], [0.3499141594931617], [0.4618173158927688], [-0.8360679940170834], [0.9860978936850001], [-0.7246961818858846], [-0.3426179989277673], [-0.18187427900027409], [0.31741718580874306], [0.35876495065997877], [0.4151028369355662], [-0.49077843298638], [-3.516975292725167], [-2.248808299782386], [-0.5299403598424804], [1.4497995391873244], [1.2231697395054097], [-0.36466955865909617], [0.41552911828731787], [-0.15102488718214827], [-1.5675554537544425], [0.10693011409727814], [-1.0314237907052548], [0.10744647047982799], [0.4793922473925003], [0.1713408380371454], [0.15521401306681848], [-1.4594063978616518], [0.6639162041383385], [-1.829559542282138], [1.1187479807396143], [-0.6154197078229432], [1.2074375709556227], [0.2861361528126386], [1.1350611438152707], [0.12278073427772924], [-0.6378782845445471], [-1.1460652193088368], [1.0801679159913595], [0.5062100886786809], [-0.48090072085766017], [-1.252553872018402], [0.40572309480197305], [-0.3656770050240939], [0.4991858639637878], [0.5096889251860153], [-1.1325996374386667], [-0.15857786834567617], [1.226909400785046], [1.5007029963799985]], [[-1.293865990878731], [-0.19140646045925136], [-1.7293265772418682], [-0.34101041895686185], [2.0148780099642636], [1.1839873388310198], [1.1401064783790975], [-0.7364583363638436], [1.5172267259334402], [1.098471697431477], [0.5000276581429594], [-0.18581787856728157], [-0.2675508702992454], [0.1539722980836688], [-0.9460207269922885], [0.9981855606323559], [0.4153420737683727], [-0.6962215042287834], [0.4523619687843991], [-1.5632858558450407], [-0.021199444605690305], [1.3337856988841037], [1.2150580991127526], [-0.999622337418622], [-1.0445330690178067], [-1.9039309895088365], [0.7895470937146404], [-0.3409655144180022], [-0.8464951179557654], [-0.06537023564787671], [1.2493377845386484], [0.2901269689249013], [0.44124585310286996], [-0.5781721157180304], [-0.45144073558967474], [1.2964811056587056], [0.5022690970489045], [-0.6254482191595854], [0.8470341575327457], [0.39622514407122505], [-0.2534322388740724], [-1.1214641064949233], [-0.5229166359462283], [-0.8906948056895289], [-0.8935573309881503], [0.5969525887484244], [-0.25988282889794206], [-0.5084152988255343], [0.5240918464930765], [-0.7567207505367962], [-1.2188836024221175], [0.548078487028413], [2.2489104901908683], [0.2377797912067532], [-0.16324463510369397], [-0.881645139680074], [-1.4176837074211723], [1.9572276181428119], [-1.3972630882237596], [-0.15034440650818534], [-0.24513661921805194], [0.09712860639971498], [-1.0427759815443058], [1.7766322222546234]], [[-1.1126587909331265], [0.06295638380477055], [-0.3996193556210464], [0.7678054987318926], [0.9948304681380078], [-0.6737836323815022], [-0.6537596139770426], [-1.7503980952712364], [0.5673157543180061], [-0.30329557140511], [0.201411649677018], [-0.8672301813729459], [-1.721890248776769], [-1.0536878587529863], [1.1718644653869443], [0.054578032211503806], [1.6953626209149304], [-0.17765553544349916], [-0.26612336658558183], [-3.0844751763483482], [-1.222062405153709], [0.9858608599714677], [-0.8213586721729754], [0.8717977342790655], [-0.3370605596489646], [1.0138099357814023], [-0.7487669599631658], [0.201127970398256], [-0.9062209866081784], [1.4060432449360938], [-0.19436272399851381], [-1.310374554103916], [0.6768634260721894], [-0.4122154493864401], [0.04857482708699359], [-0.5102334365710768], [-0.35778550454143404], [-0.48626130131806816], [-0.08986875067420119], [0.8746605337114087], [-1.557211474970194], [-0.5666910504367203], [-1.8441151221049232], [3.294141809383765], [0.2821109445546844], [0.5188873034172756], [-1.065363926733201], [-1.0131977599390027], [0.9924716070372867], [-0.03741817882409247], [-0.44723653543667885], [-0.4104506369607084], [-2.020489505495433], [-1.507782938314512], [0.19552134190827886], [0.3053657289746673], [-1.1546609676888064], [0.9002077848606166], [-0.48616121690256703], [-0.4231376650609985], [-0.6334525804627125], [0.28349012131178064], [-1.6217132068162714], [-0.2975344050769752]], [[0.9031504021769878]]]