[[[-1.3895823035514463], [2.670046683352795], [-0.4681173449879342], [-1.49768855128879], [2.3710462779548123], [0.3687829768379926], [1.5243571479429612], [1.2267655491370362], [-0.2947067618817416], [-1.1936663768393798], [1.7318816143667024], [-0.5146546830189902], [-1.9447030403223313], [-3.1764746227316296], [1.4897776176647062], [0.34932348079189046], [0.4612903631361472], [-0.8360679940170834], [0.9847522340124809], [-0.7246961818858846], [-0.3426179989277673], [-0.18173436273780436], [0.31652567622838573], [0.3565393052363122], [0.4152129162175861], [-0.49077843298638], [-3.516975292725167], [-2.248808299782386], [-0.5299403598424804], [1.447584638705786], [1.2212531296914013], [-0.36466955865909617], [0.41463465446944414], [-0.15108722954617587], [-1.5675554537544425], [0.10620252695689847], [-1.0314237907052548], [0.10817059255801303], [0.4791243744086393], [0.1691513769942223], [0.1549790939134271], [-1.4594063978616518], [0.6627204927002291], [-1.829559542282138], [1.1181743592736255], [-0.6154197078229432], [1.2056175519259484], [0.2854921721278534], [1.1343309289227594], [0.12241379869116531], [-0.6378782845445471], [-1.1460652193088368], [1.0798377918026818], [0.5063395238097714], [-0.48090072085766017], [-1.252553872018402], [0.4054335782872173], [-0.3656770050240939], [0.4987539221776475], [0.5102267581241932], [-1.1325996374386667], [-0.15811466970859656], [1.2260078888658372], [1.500353092728224]], [[-1.293865990878731], [-0.1915778572979038], [-1.7293265772418682], [-0.34100994013285907], [2.014172674092316], [1.184003031226414], [1.1398195671262692], [-0.7364583363638436], [1.5174146973762375], [1.098413650241691], [0.5002592446211163], [-0.18601082224675747], [-0.2675774437650868], [0.15379359085836095], [-0.9463325071140863], [0.995705143906102], [0.41534062236357966], [-0.6962215042287834], [0.452284511291094], [-1.5632858558450407], [-0.021199444605690305], [1.3333522269886253], [1.2143998863112786], [-0.999622337418622], [-1.0445330690178067], [-1.9039309895088365], [0.7891315182579848], [-0.3409655144180022], [-0.8464951179557654], [-0.06535244839547191], [1.2491712769573182], [0.28928885763085876], [0.4412070023940344], [-0.5781721157180304], [-0.4513431330290983], [1.2962660530689007], [0.5015182341024589], [-0.6254479834220238], [0.8470415224482836], [0.3956748299446982], [-0.2543204034212807], [-1.1214641064949233], [-0.5230105804696058], [-0.8906948056895289], [-0.8935573309881503], [0.5966287528331043], [-0.25988282889794206], [-0.5082611275349979], [0.5240918464930765], [-0.7567432747228074], [-1.2187741176476539], [0.5477438076421873], [2.2484444861326933], [0.2377797912067532], [-0.16448488769650296], [-0.881645139680074], [-1.4176837074211723], [1.9567794760249952], [-1.3972630882237596], [-0.15034440650818534], [-0.24513661921805194], [0.09728898510188445], [-1.0427759815443058], [1.7762287111250197]], [[-1.1126587909331265], [0.06295638380477055], [-0.39921455724261695], [0.7675085349931126], [0.9946895977803235], [-0.6739248456674957], [-0.6537596139770431], [-1.7503980952712364], [0.5668944645616641], [-0.30329557143078834], [0.20141159164822403], [-0.8671737595429052], [-1.721890248776769], [-1.0536878587529863], [1.1718644653869443], [0.054589606501906744], [1.6952751056896316], [-0.17802604744569073], [-0.2659923550466278], [-3.0844751763483482], [-1.222062405153709], [0.9858931367832365], [-0.8213586721729754], [0.8718973140490462], [-0.33706055960029196], [1.0136736355217155], [-0.7487669599631658], [0.20111687649349047], [-0.9062209866081784], [1.4056653811750226], [-0.19511053134401118], [-1.310374554103916], [0.6768491810380719], [-0.41287326188461126], [0.04820768473237598], [-0.5103569860327015], [-0.3578022131754138], [-0.4862613351610947], [-0.08986875067420154], [0.8741741089936145], [-1.5572114759071782], [-0.5666910516606325], [-1.8441151221049232], [3.294073402907245], [0.2820377849797323], [0.5188690954598568], [-1.065363926733201], [-1.0131977599390027], [0.9921764201025426], [-0.03708819958824801], [-0.44724264393771446], [-0.41002998922012096], [-2.020489505495433], [-1.507782938314512], [0.19552134190827886], [0.3052809014569464], [-1.1546609616685068], [0.9002069290912974], [-0.48616121690256703], [-0.4231376650609985], [-0.6334525804627125], [0.2834223606213483], [-1.6217132068162714], [-0.2975770048545661]], [[0.9030188138031019]]]