[[[-1.3895823035514463], [2.6784805681410773], [-0.4681173449879342], [-1.49768855128879], [2.3830657508685302], [0.3722279956856001], [1.5275156928408478], [1.2332139371114796], [-0.295741746114866], [-1.1936663768393798], [1.7341163078945154], [-0.5146546830189902], [-1.9447030403223313], [-3.1764746227316296], [1.4949613310219978], [0.3516937371156511], [0.4633504353414105], [-0.8360679940170834], [0.991323327971159], [-0.7246961818858846], [-0.3426179989277673], [-0.18178318236009852], [0.3206864864773722], [0.3676572576246191], [0.4145918981475695], [-0.49077843298638], [-3.516975292725167], [-2.248808299782386], [-0.5299403598424804], [1.4562617759498098], [1.2290873059996497], [-0.36466955865909617], [0.41848068237873465], [-0.1508800452750492], [-1.5675554537544425], [0.105172545326262], [-1.0314237907052548], [0.10870547592923671], [0.479914060681269], [0.17961322378141295], [0.1566523426302317], [-1.4594063978616518], [0.6669479436699561], [-1.829559542282138], [1.119532772845147], [-0.6154197078229432], [1.2128603861136624], [0.28797931068139876], [1.1372364048559211], [0.1240791927842628], [-0.6378782845445471], [-1.1460652193088368], [1.080344486331258], [0.5052802290083274], [-0.48090072085766017], [-1.252553872018402], [0.40552659921278483], [-0.3656770050240939], [0.5005133950097354], [0.5068802738976803], [-1.1325996374386667], [-0.1604624122409252], [1.2294237991303683], [1.5008361793764171]], [[-1.293865990878731], [-0.19114288958418935], [-1.7293265772418682], [-0.3410688990524044], [2.017294530046616], [1.1838653305940698], [1.1409544404405378], [-0.7364583363638436], [1.5169311926223648], [1.0990240141344623], [0.4996559506068507], [-0.18540862322161328], [-0.26734831833328676], [0.15463022209516983], [-0.9452349578209023], [1.0086183826700434], [0.41618211811696315], [-0.6962215042287834], [0.453102702684894], [-1.5632858558450407], [-0.021199444605690305], [1.3352064808606852], [1.2173532026305918], [-0.999622337418622], [-1.0445330690178067], [-1.9039309895088365], [0.7914314724858467], [-0.3409655144180022], [-0.8464951179557654], [-0.06537982614613887], [1.2496148182460685], [0.29359627758444923], [0.44078858935862086], [-0.5781721157180304], [-0.451742407092461], [1.2972889276967796], [0.5036510962327683], [-0.6254063814849091], [0.8470288035551955], [0.3981281227620444], [-0.2521138026917], [-1.1214641064949233], [-0.5231033678557525], [-0.8906948056895289], [-0.8935573309881503], [0.5978651095968793], [-0.25988282889794206], [-0.5088368350877049], [0.5240918464930765], [-0.7570547434884695], [-1.2200912601153817], [0.5497638669020545], [2.249634710274755], [0.2377797912067532], [-0.15945677766900604], [-0.881645139680074], [-1.4176837074211723], [1.9584373803071602], [-1.3972630882237596], [-0.15034440650818534], [-0.24513661921805194], [0.09695348927231491], [-1.0427759815443058], [1.7787829124863253]], [[-1.1126587909331265], [0.06295638380477055], [-0.3995041201086113], [0.7688706124378085], [0.9957041590796588], [-0.6727640322788542], [-0.6537596139768106], [-1.7503980952712364], [0.5685348315615815], [-0.3032955536706878], [0.2014170153692165], [-0.8671586928813084], [-1.721890248776769], [-1.0536878587529863], [1.1718644653869443], [0.05469881146316116], [1.6957533375405465], [-0.1767084174446186], [-0.2663586921401149], [-3.0844751763483482], [-1.222062405153709], [0.9860058212373999], [-0.8213586721729754], [0.8717549949884242], [-0.3370608047126151], [1.0140403995360747], [-0.7487669599631658], [0.20126985132183187], [-0.9062209866081784], [1.407626794069536], [-0.19245348382576263], [-1.310374554103916], [0.6769488679702351], [-0.4109758831695874], [0.04912081308006292], [-0.5100947971888296], [-0.35774163877488085], [-0.4862597057360425], [-0.08986875067239435], [0.8757371798579267], [-1.557211108896034], [-0.566690921812921], [-1.8441151221049232], [3.294662203994614], [0.282208376660634], [0.5191028745107579], [-1.065363926733201], [-1.0131977599390027], [0.9929161868662421], [-0.03858260241300969], [-0.44753299418223397], [-0.41051305811701594], [-2.020489505495433], [-1.507782938314512], [0.19552134190827886], [0.30541600014385595], [-1.1546623147719288], [0.9004452516048678], [-0.48616121690256703], [-0.4231376650609985], [-0.6334525804627125], [0.2835258152503641], [-1.6217132068162714], [-0.2974347636686676]], [[0.9030195018938821]]]