[[[-1.3895823035514463], [2.6765359589837567], [-0.4681173449879342], [-1.49768855128879], [2.3804476229353178], [0.37130370305736965], [1.5267599003204873], [1.2318697850853706], [-0.29525410091371207], [-1.1936663768393798], [1.7333138583382772], [-0.5146546830189902], [-1.9447030403223313], [-3.1764746227316296], [1.4937209775878457], [0.3512313424043715], [0.46258168058842747], [-0.8360679940170834], [0.9902603353851885], [-0.7246961818858846], [-0.3426179989277673], [-0.18209267540102622], [0.3201138444753816], [0.3658529988410582], [0.4147345692474699], [-0.49077843298638], [-3.516975292725167], [-2.248808299782386], [-0.5299403598424804], [1.454541391627855], [1.2275188418810166], [-0.36466955865909617], [0.41802498668154237], [-0.1508509072758995], [-1.5675554537544425], [0.10473965693910048], [-1.0314237907052548], [0.10735405023838193], [0.4797426720373465], [0.17663795710905683], [0.15589554027502506], [-1.4594063978616518], [0.6665356991776539], [-1.829559542282138], [1.1187122224687462], [-0.6154197078229432], [1.2114392996256544], [0.28745389724596504], [1.1364913632684386], [0.12363588805780984], [-0.6378782845445471], [-1.1460652193088368], [1.0799923758456047], [0.5054987295036296], [-0.48090072085766017], [-1.252553872018402], [0.4053150409752678], [-0.3656770050240939], [0.4999351293811923], [0.5074992626833655], [-1.1325996374386667], [-0.1599138954746837], [1.2285326459912467], [1.5001428752512342]], [[-1.293865990878731], [-0.1912850926848118], [-1.7293265772418682], [-0.3410182264711027], [2.0164927645832655], [1.1839226724082714], [1.1406503666126546], [-0.7364583363638436], [1.5168936031696698], [1.0988816063873106], [0.49986898533782376], [-0.18558192777463364], [-0.2675534231033611], [0.15416430024248856], [-0.9452409089539947], [1.0067228875498975], [0.4157648333913009], [-0.6962215042287834], [0.452840670385429], [-1.5632858558450407], [-0.021199444605690305], [1.334769065985528], [1.2167587472331833], [-0.999622337418622], [-1.0445330690178067], [-1.9039309895088365], [0.7908863126466815], [-0.3409655144180022], [-0.8464951179557654], [-0.06536337379369957], [1.2493526819789846], [0.2929580283487786], [0.4410127638410169], [-0.5781721157180304], [-0.4516161292814286], [1.2968454841738226], [0.5032231217960892], [-0.6254405030921433], [0.8470305709570242], [0.39754300374896595], [-0.25233460757706583], [-1.1214641064949233], [-0.5229926791117334], [-0.8906948056895289], [-0.8935573309881503], [0.5975467189319423], [-0.25988282889794206], [-0.5086717151481108], [0.5240918464930765], [-0.7569515452598072], [-1.2194541038650701], [0.5492503419355681], [2.2491454626125], [0.2377797912067532], [-0.15981370349066087], [-0.881645139680074], [-1.4176837074211723], [1.9580144988258872], [-1.3972630882237596], [-0.15034440650818534], [-0.24513661921805194], [0.09688481107025541], [-1.0427759815443058], [1.778084121027261]], [[-1.1126587909331265], [0.06295638380477055], [-0.39955521758832185], [0.7690843889208443], [0.9957000908942678], [-0.6729227838873256], [-0.6537596139768106], [-1.7503980952712364], [0.5681156461720117], [-0.3032955686422238], [0.2014124297366979], [-0.8672472959630131], [-1.721890248776769], [-1.0536878587529863], [1.1718644653869443], [0.05461472693799949], [1.6955723691399125], [-0.17697818042106822], [-0.26612016191994436], [-3.0844751763483482], [-1.222062405153709], [0.9858874110686295], [-0.8213586721729754], [0.8717071167439995], [-0.3370605698997929], [1.0139951085921994], [-0.7487669599631658], [0.20119372385325082], [-0.9062209866081784], [1.4071969330960474], [-0.19295126578723346], [-1.310374554103916], [0.6769106278943227], [-0.4112938514563726], [0.04889093848987275], [-0.5100864086805187], [-0.3577563359131393], [-0.48626100588140936], [-0.08986875067376039], [0.8756171932541963], [-1.557211431335611], [-0.5666910214107915], [-1.8441151221049232], [3.2943852317461486], [0.28219899074694454], [0.5189805751167125], [-1.065363926733201], [-1.0131977599390027], [0.9927510251401327], [-0.03802576199116057], [-0.44717309775235126], [-0.41079248621937114], [-2.020489505495433], [-1.507782938314512], [0.19552134190827886], [0.3054456626657567], [-1.1546611290739908], [0.900295617528905], [-0.48616121690256703], [-0.4231376650609985], [-0.6334525804627125], [0.28355248467738897], [-1.6217132068162714], [-0.29746124064336166]], [[0.9032523161105854]]]