[[[-1.3895823035514463], [2.678504490655904], [-0.4681173449879342], [-1.49768855128879], [2.382979608069631], [0.3721791445394529], [1.5274146684413423], [1.2332068714171447], [-0.295703934955438], [-1.1936663768393798], [1.7338873200509277], [-0.5146546830189902], [-1.9447030403223313], [-3.1764746227316296], [1.49472541533521], [0.3516550951169059], [0.4631951822279475], [-0.8360679940170834], [0.9916534699567383], [-0.7246961818858846], [-0.3426179989277673], [-0.18185529273098947], [0.32079720692000835], [0.3673523546490929], [0.4145945161528077], [-0.49077843298638], [-3.516975292725167], [-2.248808299782386], [-0.5299403598424804], [1.4563981797798964], [1.2291056136067584], [-0.36466955865909617], [0.4185509107068402], [-0.15087213002034616], [-1.5675554537544425], [0.1054496818441927], [-1.0314237907052548], [0.10881791748455129], [0.479818441316684], [0.17952345625535146], [0.1566200014811977], [-1.4594063978616518], [0.6671676269964018], [-1.829559542282138], [1.1192613599880665], [-0.6154197078229432], [1.212973454000589], [0.28799916152666305], [1.1369699484833682], [0.12400389293294299], [-0.6378782845445471], [-1.1460652193088368], [1.0801711659402755], [0.5051335305910758], [-0.48090072085766017], [-1.252553872018402], [0.40532846015706875], [-0.3656770050240939], [0.5004731987151728], [0.5069211851228789], [-1.1325996374386667], [-0.16049233595347195], [1.2293712953674165], [1.5004694736330635]], [[-1.293865990878731], [-0.19112151813876288], [-1.7293265772418682], [-0.34105413028438986], [2.0170650409129274], [1.1839944339457278], [1.1410300981323298], [-0.7364583363638436], [1.5168497168886441], [1.0990029246094837], [0.49979351883804485], [-0.18551606642126015], [-0.26739540722232596], [0.15467667981610966], [-0.9452055688899152], [1.0089056186000034], [0.41623565802527795], [-0.6962215042287834], [0.4531134533167494], [-1.5632858558450407], [-0.021199444605690305], [1.3350527245056336], [1.2173156869345083], [-0.999622337418622], [-1.0445330690178067], [-1.9039309895088365], [0.7914400044779418], [-0.3409655144180022], [-0.8464951179557654], [-0.06542020060154372], [1.2496707345853604], [0.2937894303276235], [0.4408254226088701], [-0.5781721157180304], [-0.4516864336164046], [1.2972624728930688], [0.5035268259198113], [-0.6253943475499841], [0.8470293768000899], [0.3979730734872658], [-0.25200785308649104], [-1.1214641064949233], [-0.5231582661165254], [-0.8906948056895289], [-0.8935573309881503], [0.5978026778269786], [-0.25988282889794206], [-0.5088249641128982], [0.5240918464930765], [-0.7570586586479425], [-1.2201017479502345], [0.549792627896334], [2.249792575006915], [0.2377797912067532], [-0.1593875645136067], [-0.881645139680074], [-1.4176837074211723], [1.9582836190595259], [-1.3972630882237596], [-0.15034440650818534], [-0.24513661921805194], [0.09700392241602297], [-1.0427759815443058], [1.7787942783500916]], [[-1.1126587909331265], [0.06295638380477055], [-0.39955765633249063], [0.7689949059778668], [0.9957900983046373], [-0.6726024439675042], [-0.6537596139768106], [-1.7503980952712364], [0.5683474338988947], [-0.30329555126761004], [0.20141555343763254], [-0.8671808878514983], [-1.721890248776769], [-1.0536878587529863], [1.1718644653869443], [0.05464559259171204], [1.6957642228237029], [-0.17666555629669448], [-0.26631467945643295], [-3.0844751763483482], [-1.222062405153709], [0.9859028754737832], [-0.8213586721729754], [0.8717195673992507], [-0.33706072762811806], [1.014170926685811], [-0.7487669599631658], [0.20125443616672395], [-0.9062209866081784], [1.4075824152842542], [-0.19234072549126383], [-1.310374554103916], [0.6769575859902387], [-0.4109050964658521], [0.049021050408046704], [-0.510058797505474], [-0.3577240181363263], [-0.48626004797747524], [-0.08986875067239435], [0.8755260970042582], [-1.557211190152298], [-0.5666909341908323], [-1.8441151221049232], [3.294602272828953], [0.28228153078703466], [0.5190643864491078], [-1.065363926733201], [-1.0131977599390027], [0.9927868896620013], [-0.03858535237386374], [-0.4473907343926831], [-0.41057778556401175], [-2.020489505495433], [-1.507782938314512], [0.19552134190827886], [0.3055270502772706], [-1.1546619829282452], [0.900374257240468], [-0.48616121690256703], [-0.4231376650609985], [-0.6334525804627125], [0.2836103460223066], [-1.6217132068162714], [-0.2973881941163424]], [[0.9033904719955601]]]