[[[-1.3895823035514463], [2.6862878773143537], [-0.4681173449879342], [-1.49768855128879], [2.382356062121205], [0.37265785985999184], [1.5250002591388236], [1.233450219885565], [-0.29581608671707765], [-1.1936663768393798], [1.73672317400496], [-0.5146546830189902], [-1.9447030403223313], [-3.1764746227316296], [1.4937115669598866], [0.3511843127571811], [0.46124632202675725], [-0.8360679940170834], [0.9935362944996308], [-0.7246961818858846], [-0.3426179989277673], [-0.1816685455003152], [0.31974403195796813], [0.35965059779276815], [0.4125367836562436], [-0.49077843298638], [-3.516975292725167], [-2.248808299782386], [-0.5299403598424804], [1.4581544433405855], [1.2285137410961566], [-0.36466955865909617], [0.4162850550557011], [-0.15115312362118916], [-1.5675554537544425], [0.09048553457130114], [-1.0314237907052548], [0.09982145424090381], [0.48117702807017315], [0.17094204498320148], [0.15610387115601215], [-1.4594063978616518], [0.6672622729054277], [-1.829559542282138], [1.117971244471486], [-0.6154197078229432], [1.2124551454056942], [0.2859586215925043], [1.1309274937966733], [0.12340583603864193], [-0.6378782845445471], [-1.1460652193088368], [1.0851894842630287], [0.5027323624640793], [-0.48090072085766017], [-1.252553872018402], [0.4025802011527111], [-0.3656770050240939], [0.5056517316244835], [0.5085486914321877], [-1.1325996374386667], [-0.16077554031073468], [1.2268478302348664], [1.500055355046278]], [[-1.293865990878731], [-0.19042437095839151], [-1.7293265772418682], [-0.3411280925074676], [2.016004613170107], [1.1832165206540532], [1.142841113494333], [-0.7364583363638436], [1.5163663948339696], [1.097628755126457], [0.497797108433421], [-0.18546017805203555], [-0.2675069603802286], [0.15732071885643148], [-0.9487254474010203], [0.9993995284777536], [0.41525296163510744], [-0.6962215042287834], [0.4512534326389118], [-1.5632858558450407], [-0.021199444605690305], [1.33408904961271], [1.2162810722626782], [-0.999622337418622], [-1.0445330690178067], [-1.9039309895088365], [0.7883176877370719], [-0.3409655144180022], [-0.8464951179557654], [-0.06389154179864089], [1.2513297829651497], [0.28791924070063396], [0.4408501219761621], [-0.5781721157180304], [-0.450305562788197], [1.2984763439617495], [0.4924766283580578], [-0.6254833994271325], [0.8470285789504254], [0.39695512363925206], [-0.2514968104467288], [-1.1214641064949233], [-0.5234824424675346], [-0.8906948056895289], [-0.8935573309881503], [0.5977431277196233], [-0.25988282889794206], [-0.5082723003265438], [0.5240918464930765], [-0.755402145230746], [-1.2178295089356612], [0.5485554288140845], [2.2545677871015033], [0.2377797912067532], [-0.17251909885011069], [-0.881645139680074], [-1.4176837074211723], [1.9573552288231744], [-1.3972630882237596], [-0.15034440650818534], [-0.24513661921805194], [0.09978533622406593], [-1.0427759815443058], [1.778044713305068]], [[-1.1126587909331265], [0.06295638380477055], [-0.40042711137335063], [0.7643168305255199], [0.9919501537598255], [-0.6747098044909011], [-0.6537596139768106], [-1.7503980952712364], [0.5668647121346789], [-0.30329556058482643], [0.20142605538834268], [-0.8656145476130588], [-1.721890248776769], [-1.0536878587529863], [1.1718644653869443], [0.05418651959773605], [1.6963147046664955], [-0.17616235259433424], [-0.27107776708500236], [-3.0844751763483482], [-1.222062405153709], [0.9845058402593533], [-0.8213586721729754], [0.8731919091943987], [-0.33706097706177895], [1.0160076897855792], [-0.7487669599631658], [0.20169419875041816], [-0.9062209866081784], [1.4054693715687505], [-0.19076888219064], [-1.310374554103916], [0.6776265935324244], [-0.40977421736413633], [0.047915845542582707], [-0.5097576386955319], [-0.35724518754330115], [-0.4862589561798245], [-0.08986875067239435], [0.8733360107666891], [-1.5572109152875475], [-0.5666909005658676], [-1.8441151221049232], [3.294471055590918], [0.2830009593442431], [0.5189088105436502], [-1.065363926733201], [-1.0131977599390027], [0.991532342207162], [-0.034787177317465015], [-0.4514698756863981], [-0.4114235577568191], [-2.020489505495433], [-1.507782938314512], [0.19552134190827886], [0.3068115617645569], [-1.1546630641108249], [0.8996853362946241], [-0.48616121690256703], [-0.4231376650609985], [-0.6334525804627125], [0.28454043041715876], [-1.6217132068162714], [-0.2962529798016413]], [[0.9107563934159891]]]