[[[-1.3895823035514463], [2.680072466780527], [-0.4681173449879342], [-1.49768855128879], [2.383127998976032], [0.3728698592841572], [1.5267398440052389], [1.2333203324841568], [-0.2957964549345062], [-1.1936663768393798], [1.734196959740401], [-0.5146546830189902], [-1.9447030403223313], [-3.1764746227316296], [1.4947382717787474], [0.3518618360839794], [0.46266235169225123], [-0.8360679940170834], [0.9922879114332054], [-0.7246961818858846], [-0.3426179989277673], [-0.18172146953761217], [0.32059615411004366], [0.3660822509795307], [0.4138949586708137], [-0.49077843298638], [-3.516975292725167], [-2.248808299782386], [-0.5299403598424804], [1.4568692975456927], [1.2290726221361177], [-0.36466955865909617], [0.4183607412281662], [-0.15096478796254773], [-1.5675554537544425], [0.10149598606215841], [-1.0314237907052548], [0.10778941587119513], [0.4804787543018698], [0.1773988684773507], [0.1568875824041658], [-1.4594063978616518], [0.6668897339044432], [-1.829559542282138], [1.1190065844960628], [-0.6154197078229432], [1.2129227687862887], [0.2875833814867813], [1.1356795813172826], [0.12410212745300021], [-0.6378782845445471], [-1.1460652193088368], [1.0811938379674826], [0.5045299992969586], [-0.48090072085766017], [-1.252553872018402], [0.40493427986567787], [-0.3656770050240939], [0.5013133001862076], [0.5066867173309354], [-1.1325996374386667], [-0.16042109435701551], [1.2288100586092885], [1.5002677645424658]], [[-1.293865990878731], [-0.1911866977064292], [-1.7293265772418682], [-0.3411141292005037], [2.017319790042586], [1.183552873416926], [1.1410617877558018], [-0.7364583363638436], [1.5170035421774741], [1.098428725777024], [0.49903146466086284], [-0.18514574215805488], [-0.2672927566285525], [0.15513022303446394], [-0.9462001148045704], [1.007773552569869], [0.4157851008440027], [-0.6962215042287834], [0.4528785489950679], [-1.5632858558450407], [-0.021199444605690305], [1.335091981466366], [1.2169646433130121], [-0.999622337418622], [-1.0445330690178067], [-1.9039309895088365], [0.790685845016396], [-0.3409655144180022], [-0.8464951179557654], [-0.06509431036600642], [1.25008626939392], [0.29306476987303043], [0.44079293946045633], [-0.5781721157180304], [-0.45154784513420715], [1.2976741613919294], [0.5020121497070464], [-0.6254501676244691], [0.8470276865964735], [0.39805244122722705], [-0.2521672874347955], [-1.1214641064949233], [-0.5230535473763986], [-0.8906948056895289], [-0.8935573309881503], [0.5979977160750588], [-0.25988282889794206], [-0.508689684084428], [0.5240918464930765], [-0.7570021162828118], [-1.2200116899253795], [0.5492877047628958], [2.250547062430288], [0.2377797912067532], [-0.1618228561358641], [-0.881645139680074], [-1.4176837074211723], [1.9582538564868], [-1.3972630882237596], [-0.15034440650818534], [-0.24513661921805194], [0.09748110458796569], [-1.0427759815443058], [1.7785229793799646]], [[-1.1126587909331265], [0.06295638380477055], [-0.3995329144369221], [0.767149219196472], [0.9947457232237663], [-0.6734138489031903], [-0.6537596139768106], [-1.7503980952712364], [0.5684147308377154], [-0.30329556058482643], [0.2014224827390698], [-0.8670276636366555], [-1.721890248776769], [-1.0536878587529863], [1.1718644653869443], [0.05468264119969038], [1.695834580214457], [-0.1766545617326733], [-0.267180847128329], [-3.0844751763483482], [-1.222062405153709], [0.9859571370524356], [-0.8213586721729754], [0.87200101157747], [-0.33706097706177895], [1.0141798484855684], [-0.7487669599631658], [0.2012855157874512], [-0.9062209866081784], [1.407377362201859], [-0.19235667524192465], [-1.310374554103916], [0.67697187170627], [-0.41090684466507055], [0.049070322324755083], [-0.5100644636725945], [-0.3577195373135902], [-0.48625922386874687], [-0.08986875067239435], [0.875600962202889], [-1.5572109487472217], [-0.5666909005658676], [-1.8441151221049232], [3.2947148915319007], [0.28228025360392583], [0.519115081222115], [-1.065363926733201], [-1.0131977599390027], [0.9928611748368167], [-0.03808487819047442], [-0.4488224538359848], [-0.4105487926724517], [-2.020489505495433], [-1.507782938314512], [0.19552134190827886], [0.3055079309476443], [-1.1546629918996354], [0.9004378260122634], [-0.48616121690256703], [-0.4231376650609985], [-0.6334525804627125], [0.2835937221365122], [-1.6217132068162714], [-0.29738093825587014]], [[0.9032738035207081]]]