[[[-1.3895823035514463], [2.684121879862488], [-0.4681173449879342], [-1.49768855128879], [2.382601167988644], [0.37293132678681257], [1.525333984835398], [1.2332430435768091], [-0.29581279930486165], [-1.1936663768393798], [1.7355414561384916], [-0.5146546830189902], [-1.9447030403223313], [-3.1764746227316296], [1.4937238449850707], [0.3515249865766204], [0.4614264875061147], [-0.8360679940170834], [0.9932320837586501], [-0.7246961818858846], [-0.3426179989277673], [-0.18170633864539462], [0.3196295490265383], [0.3617650539301729], [0.41278214592166024], [-0.49077843298638], [-3.516975292725167], [-2.248808299782386], [-0.5299403598424804], [1.4578716813960928], [1.2284994890123262], [-0.36466955865909617], [0.41674891215897975], [-0.15114170073835234], [-1.5675554537544425], [0.09449151603028808], [-1.0314237907052548], [0.10364829450457543], [0.4814148085974103], [0.17276372958401282], [0.15677053943521752], [-1.4594063978616518], [0.6668874586776067], [-1.829559542282138], [1.1180170061801442], [-0.6154197078229432], [1.2127491164194162], [0.28647744000670106], [1.132000406356482], [0.12387394395603009], [-0.6378782845445471], [-1.1460652193088368], [1.083828161059092], [0.5030098593014836], [-0.48090072085766017], [-1.252553872018402], [0.4035029704623791], [-0.3656770050240939], [0.5041032438527233], [0.5079935082415873], [-1.1325996374386667], [-0.1606096339262613], [1.2276276730815892], [1.49989141230693]], [[-1.293865990878731], [-0.1908337871190156], [-1.7293265772418682], [-0.3411280925074676], [2.0165524828359507], [1.183172425571822], [1.1423078003349674], [-0.7364583363638436], [1.5163685308776655], [1.0975700898890057], [0.4981041859012898], [-0.18535754861830353], [-0.267456400489304], [0.15664333235195024], [-0.9486990664598945], [1.0013928042632738], [0.4151741808117171], [-0.6962215042287834], [0.4516264343393827], [-1.5632858558450407], [-0.021199444605690305], [1.334356331836176], [1.2164077299913543], [-0.999622337418622], [-1.0445330690178067], [-1.9039309895088365], [0.7889334951528978], [-0.3409655144180022], [-0.8464951179557654], [-0.06424059648839935], [1.2509795113189657], [0.29050978390845655], [0.4408401855165966], [-0.5781721157180304], [-0.4507711728918413], [1.2983411034077441], [0.4958946633700514], [-0.6254790319931584], [0.8470285789504254], [0.39716102372126355], [-0.2517660101797545], [-1.1214641064949233], [-0.5232207703372774], [-0.8906948056895289], [-0.8935573309881503], [0.5978629117214956], [-0.25988282889794206], [-0.5082981291047102], [0.5240918464930765], [-0.7564037961134992], [-1.2190507469324527], [0.5484827992183036], [2.25357032570529], [0.2377797912067532], [-0.16919846098466712], [-0.881645139680074], [-1.4176837074211723], [1.9575780641726004], [-1.3972630882237596], [-0.15034440650818534], [-0.24513661921805194], [0.09926640068326499], [-1.0427759815443058], [1.7779358083593322]], [[-1.1126587909331265], [0.06295638380477055], [-0.40006598670945814], [0.7649242254764872], [0.9927612852330804], [-0.6748688864345298], [-0.6537596139768106], [-1.7503980952712364], [0.5672878917868982], [-0.30329556058482643], [0.20142605538834268], [-0.8665281415821546], [-1.721890248776769], [-1.0536878587529863], [1.1718644653869443], [0.054331350148362864], [1.696169409531156], [-0.17624847634008453], [-0.269679988095388], [-3.0844751763483482], [-1.222062405153709], [0.9850496709855427], [-0.8213586721729754], [0.8725945733735706], [-0.33706097706177895], [1.0154216225482438], [-0.7487669599631658], [0.20143687669430418], [-0.9062209866081784], [1.406085015638577], [-0.19124205489610543], [-1.310374554103916], [0.6772974645594564], [-0.4101621779730461], [0.04828145564183164], [-0.5098142775163691], [-0.35745943449992024], [-0.4862589561798245], [-0.08986875067239435], [0.8740014431895755], [-1.5572109152875475], [-0.5666909005658676], [-1.8441151221049232], [3.2945349859222777], [0.2828517782503204], [0.5189471359037909], [-1.065363926733201], [-1.0131977599390027], [0.9919314165558121], [-0.03564175745988968], [-0.4513844484597507], [-0.4110931738330098], [-2.020489505495433], [-1.507782938314512], [0.19552134190827886], [0.3064372946959282], [-1.1546630641108249], [0.8999521679371546], [-0.48616121690256703], [-0.4231376650609985], [-0.6334525804627125], [0.28427159761116416], [-1.6217132068162714], [-0.2967332523603985]], [[0.9077209208625523]]]