[[[-1.3895823035514463], [2.6753075246528497], [-0.4681173449879342], [-1.49768855128879], [2.3789353881973536], [0.37088949679310096], [1.526417599286856], [1.2310138624671974], [-0.2950832922022348], [-1.1936663768393798], [1.7332072882543328], [-0.5146546830189902], [-1.9447030403223313], [-3.1764746227316296], [1.4933363809009936], [0.35098751962063746], [0.46247234435423956], [-0.8360679940170834], [0.9890247966435208], [-0.7246961818858846], [-0.3426179989277673], [-0.1820616769999835], [0.31953904311721326], [0.3649379380919995], [0.41484232002112165], [-0.49077843298638], [-3.516975292725167], [-2.248808299782386], [-0.5299403598424804], [1.4532564836079784], [1.2264751528528361], [-0.36466955865909617], [0.41752497741765787], [-0.1509044578658978], [-1.5675554537544425], [0.1054996987430561], [-1.0314237907052548], [0.10688560312729697], [0.4796958966917413], [0.1751032496099185], [0.1556018080628152], [-1.4594063978616518], [0.665828645558543], [-1.829559542282138], [1.1188140169471132], [-0.6154197078229432], [1.2103760272658595], [0.28716577876621796], [1.1364138570079965], [0.12346897210057456], [-0.6378782845445471], [-1.1460652193088368], [1.080052335454679], [0.5058531392186233], [-0.48090072085766017], [-1.252553872018402], [0.4055649239032292], [-0.3656770050240939], [0.49967386252683976], [0.5078991416232578], [-1.1325996374386667], [-0.15967682500259794], [1.2280993917176217], [1.5004156000889028]], [[-1.293865990878731], [-0.19135120087456958], [-1.7293265772418682], [-0.34101402560716076], [2.0162692460706793], [1.1838191998652434], [1.1404057877350053], [-0.7364583363638436], [1.5170284497602242], [1.0988064090186367], [0.49977720168884776], [-0.18553835923246026], [-0.2675707203586758], [0.15397038432353422], [-0.9453076207807452], [1.0049570055198198], [0.41552036078854926], [-0.6962215042287834], [0.4526891948425212], [-1.5632858558450407], [-0.021199444605690305], [1.334657834643264], [1.216364788305354], [-0.999622337418622], [-1.0445330690178067], [-1.9039309895088365], [0.7905372111511698], [-0.3409655144180022], [-0.8464951179557654], [-0.065308813399035], [1.2492238907563529], [0.29212739342020577], [0.4411520057507714], [-0.5781721157180304], [-0.4516194085264961], [1.296688477240519], [0.5032980694609965], [-0.6254511020313688], [0.8470310901325392], [0.39734177716158164], [-0.2526393319742355], [-1.1214641064949233], [-0.5228529866705651], [-0.8906948056895289], [-0.8935573309881503], [0.5974103667088217], [-0.25988282889794206], [-0.508588580597335], [0.5240918464930765], [-0.756848903414144], [-1.2192362936971013], [0.5488958370779268], [2.2488397145024512], [0.2377797912067532], [-0.16038425482754998], [-0.881645139680074], [-1.4176837074211723], [1.957958895664409], [-1.3972630882237596], [-0.15034440650818534], [-0.24513661921805194], [0.09683117337461958], [-1.0427759815443058], [1.7776528213707716]], [[-1.1126587909331265], [0.06295638380477055], [-0.3995341857603861], [0.7687372910440753], [0.9954762431208195], [-0.6733186747488817], [-0.65375961397698], [-1.7503980952712364], [0.5680783587197925], [-0.3032955705791282], [0.20141204718385622], [-0.8672501466797348], [-1.721890248776769], [-1.0536878587529863], [1.1718644653869443], [0.054636049824630266], [1.6954793383811622], [-0.1771870978659587], [-0.26614030830370533], [-3.0844751763483482], [-1.222062405153709], [0.9859427826529872], [-0.8213586721729754], [0.8717145215997394], [-0.33706056235925885], [1.0138306333669296], [-0.7487669599631658], [0.20118314571526996], [-0.9062209866081784], [1.406869555043079], [-0.19339927118274183], [-1.310374554103916], [0.6768910962510776], [-0.4115438556028536], [0.04889341057188001], [-0.5101355992592908], [-0.3577795012623465], [-0.4862611368802124], [-0.08986875067414685], [0.875650541794721], [-1.5572114595505642], [-0.5666910353092335], [-1.8441151221049232], [3.294326543054478], [0.28211111543103645], [0.5189683836135313], [-1.065363926733201], [-1.0131977599390027], [0.9928215277175236], [-0.037804556012944225], [-0.4471668874295234], [-0.4108371334084142], [-2.020489505495433], [-1.507782938314512], [0.19552134190827886], [0.3053359921005586], [-1.1546610340019072], [0.9003059897518855], [-0.48616121690256703], [-0.4231376650609985], [-0.6334525804627125], [0.28346901520252865], [-1.6217132068162714], [-0.2975171001827741]], [[0.903011526109459]]]