[[[-1.3895823035514463], [2.6772385591695746], [-0.4681173449879342], [-1.49768855128879], [2.3822235132610423], [0.3715358848756389], [1.527766644936484], [1.2327379780809453], [-0.2955676737707224], [-1.1936663768393798], [1.7340803463735714], [-0.5146546830189902], [-1.9447030403223313], [-3.1764746227316296], [1.49475568070029], [0.3514091194550502], [0.46337238720418256], [-0.8360679940170834], [0.9902247862136817], [-0.7246961818858846], [-0.3426179989277673], [-0.1819889995112222], [0.3203507997863308], [0.3679425812097551], [0.4150743813276532], [-0.49077843298638], [-3.516975292725167], [-2.248808299782386], [-0.5299403598424804], [1.4553448861464853], [1.2285304294822594], [-0.36466955865909617], [0.4181857885530683], [-0.15085623901112], [-1.5675554537544425], [0.1060118430284574], [-1.0314237907052548], [0.1081505282977321], [0.4797581884444999], [0.1794833392141419], [0.1562625756981695], [-1.4594063978616518], [0.6666875573623853], [-1.829559542282138], [1.119609521275274], [-0.6154197078229432], [1.2122954837817257], [0.2878859698809428], [1.137852405282678], [0.12399828008346299], [-0.6378782845445471], [-1.1460652193088368], [1.0800028904924264], [0.5057452716449616], [-0.48090072085766017], [-1.252553872018402], [0.4058345708469205], [-0.3656770050240939], [0.500182906071769], [0.5073127171754531], [-1.1325996374386667], [-0.1604943911477394], [1.2295134292582413], [1.5011683690815167]], [[-1.293865990878731], [-0.19118549919095493], [-1.7293265772418682], [-0.34103762280463545], [2.017155326395453], [1.1838846242362955], [1.1408190138229164], [-0.7364583363638436], [1.5167809483146883], [1.0991742837989527], [0.49990866672715345], [-0.18559079198710488], [-0.2674598967024643], [0.15425016854925652], [-0.945014523968283], [1.007725603118857], [0.41617926239421277], [-0.6962215042287834], [0.4530910004660457], [-1.5632858558450407], [-0.021199444605690305], [1.3350961978341467], [1.2173980101831061], [-0.999622337418622], [-1.0445330690178067], [-1.9039309895088365], [0.7916215003032814], [-0.3409655144180022], [-0.8464951179557654], [-0.06537477190862953], [1.2493807458438275], [0.29341108647953007], [0.4408733074104533], [-0.5781721157180304], [-0.4517281965968256], [1.2970183991789015], [0.5038912792215847], [-0.625395072639367], [0.8470299641180083], [0.3980395187364053], [-0.2521952461266771], [-1.1214641064949233], [-0.5231144735069918], [-0.8906948056895289], [-0.8935573309881503], [0.5977231390104618], [-0.25988282889794206], [-0.5088082293174558], [0.5240918464930765], [-0.7570303022420414], [-1.2199261766449523], [0.5497555967189044], [2.2490335896277682], [0.2377797912067532], [-0.15867754812908338], [-0.881645139680074], [-1.4176837074211723], [1.9583328329769676], [-1.3972630882237596], [-0.15034440650818534], [-0.24513661921805194], [0.09679514344255245], [-1.0427759815443058], [1.7786648386258594]], [[-1.1126587909331265], [0.06295638380477055], [-0.39951478543218744], [0.7696208037817464], [0.9962511487628332], [-0.6726935479135038], [-0.6537596139768106], [-1.7503980952712364], [0.5684210733132897], [-0.30329555977365913], [0.2014139559453553], [-0.8672023845193013], [-1.721890248776769], [-1.0536878587529863], [1.1718644653869443], [0.054674968164338617], [1.6956667020846128], [-0.17680039733268937], [-0.266002126112626], [-3.0844751763483482], [-1.222062405153709], [0.9859787446136967], [-0.8213586721729754], [0.8716851751801973], [-0.33706065258670204], [1.0139823623670128], [-0.7487669599631658], [0.20124078665676337], [-0.9062209866081784], [1.4078060986929837], [-0.19253861656910104], [-1.310374554103916], [0.6769304486912393], [-0.41107123557983494], [0.04906646185560243], [-0.510101980866795], [-0.35775301425066763], [-0.4862605047051232], [-0.08986875067239435], [0.8757406008833387], [-1.5572113047085052], [-0.5666909716858537], [-1.8441151221049232], [3.294551288908224], [0.2821825900391565], [0.5190572475156494], [-1.065363926733201], [-1.0131977599390027], [0.9928759827702569], [-0.03851879392798024], [-0.44723847155774704], [-0.41055741489650577], [-2.020489505495433], [-1.507782938314512], [0.19552134190827886], [0.3053978200345066], [-1.154661580429354], [0.90039584605413], [-0.48616121690256703], [-0.4231376650609985], [-0.6334525804627125], [0.2835144306809631], [-1.6217132068162714], [-0.29745847878741577]], [[0.9030371815348224]]]