[[[-1.3895823035514463], [2.672426333864518], [-0.4681173449879342], [-1.49768855128879], [2.3750497934593713], [0.36958556507502366], [1.5258081883660315], [1.2288494734299802], [-0.2948292103333976], [-1.1936663768393798], [1.7330811142323084], [-0.5146546830189902], [-1.9447030403223313], [-3.1764746227316296], [1.4920788807973324], [0.3500835029296804], [0.462262148555185], [-0.8360679940170834], [0.9857647830719846], [-0.7246961818858846], [-0.3426179989277673], [-0.1818855349233125], [0.31768744793732295], [0.36065309620827884], [0.4153226772315403], [-0.49077843298638], [-3.516975292725167], [-2.248808299782386], [-0.5299403598424804], [1.4500565240809518], [1.2237409589302601], [-0.36466955865909617], [0.41578654869523934], [-0.15097125170746417], [-1.5675554537544425], [0.10657796230757073], [-1.0314237907052548], [0.10704084732993527], [0.47944735217991835], [0.17267379638095587], [0.15514193076701321], [-1.4594063978616518], [0.6639200235317834], [-1.829559542282138], [1.1192861370537812], [-0.6154197078229432], [1.2077298344154952], [0.2863747126375938], [1.1361814826798855], [0.12296952564487403], [-0.6378782845445471], [-1.1460652193088368], [1.0801881801671591], [0.5066115606042474], [-0.48090072085766017], [-1.252553872018402], [0.40616382799565853], [-0.3656770050240939], [0.4992339127794438], [0.5094101326698905], [-1.1325996374386667], [-0.1588383508012925], [1.2273506692712202], [1.5014109453572366]], [[-1.293865990878731], [-0.19140246512075482], [-1.7293265772418682], [-0.34101076726545104], [2.015396522296273], [1.1837898512360847], [1.1400540721529921], [-0.7364583363638436], [1.5172059657873467], [1.0986662241442413], [0.49991291471256405], [-0.18571605846858003], [-0.26755452630351534], [0.153789995498493], [-0.9457383502357384], [0.9992879809038281], [0.41532831158701833], [-0.6962215042287834], [0.4524369005247169], [-1.5632858558450407], [-0.021199444605690305], [1.334109193003864], [1.2154270858824014], [-0.999622337418622], [-1.0445330690178067], [-1.9039309895088365], [0.7898643633102951], [-0.3409655144180022], [-0.8464951179557654], [-0.06528286535775715], [1.2491782657108093], [0.29008124268936725], [0.44126243390422626], [-0.5781721157180304], [-0.451551802718189], [1.2964504229465428], [0.5028144969933518], [-0.6254483931173799], [0.8470329126391962], [0.3965884810641177], [-0.2534152295179935], [-1.1214641064949233], [-0.522823373273776], [-0.8906948056895289], [-0.8935573309881503], [0.5970531113018611], [-0.25988282889794206], [-0.5084556587481793], [0.5240918464930765], [-0.756728549839654], [-1.2189721879208721], [0.5482218011065965], [2.2485307995648984], [0.2377797912067532], [-0.16230540808858265], [-0.881645139680074], [-1.4176837074211723], [1.957563618032999], [-1.3972630882237596], [-0.15034440650818534], [-0.24513661921805194], [0.09692483001917337], [-1.0427759815443058], [1.776811712609691]], [[-1.1126587909331265], [0.06295638380477055], [-0.3996318964160496], [0.7681624247855852], [0.9950669734398333], [-0.6737819302809595], [-0.6537596139770426], [-1.7503980952712364], [0.5675688927060155], [-0.30329557137283164], [0.20141168780953456], [-0.867239112509039], [-1.721890248776769], [-1.0536878587529863], [1.1718644653869443], [0.05462374795672464], [1.6953547517757228], [-0.1776262063460221], [-0.26613506519268126], [-3.0844751763483482], [-1.222062405153709], [0.9859413461396923], [-0.8213586721729754], [0.8717744562740479], [-0.3370605596880382], [1.0137001149676579], [-0.7487669599631658], [0.20115108879718194], [-0.9062209866081784], [1.406293087751121], [-0.1943082531091268], [-1.310374554103916], [0.6768661872536257], [-0.4121156356142207], [0.0487405804214688], [-0.5102426296215915], [-0.35779831843892823], [-0.48626128372880517], [-0.08986875067420076], [0.875091473031788], [-1.557211474011625], [-0.566691049400247], [-1.8441151221049232], [3.294193686165394], [0.28204556645533413], [0.5189202012971336], [-1.065363926733201], [-1.0131977599390027], [0.9926514160201371], [-0.037506622975492204], [-0.4472155793162925], [-0.4105698097316083], [-2.020489505495433], [-1.507782938314512], [0.19552134190827886], [0.3052702043616075], [-1.1546609719366563], [0.9002658612497683], [-0.48616121690256703], [-0.4231376650609985], [-0.6334525804627125], [0.28341721897472316], [-1.6217132068162714], [-0.29756357127456873]], [[0.9029319022985297]]]