[[[-1.3895823035514463], [2.675947723948188], [-0.4681173449879342], [-1.49768855128879], [2.381317345116265], [0.37094327623814405], [1.5279889683821273], [1.2321795671808065], [-0.29542713355192135], [-1.1936663768393798], [1.7342442721626268], [-0.5146546830189902], [-1.9447030403223313], [-3.1764746227316296], [1.4947845594205849], [0.3511483965379992], [0.46348257207125937], [-0.8360679940170834], [0.9887499219767536], [-0.7246961818858846], [-0.3426179989277673], [-0.18209593793417245], [0.3198502076201364], [0.36830873426259897], [0.4154450083116135], [-0.49077843298638], [-3.516975292725167], [-2.248808299782386], [-0.5299403598424804], [1.4542114553864847], [1.2278761375936644], [-0.36466955865909617], [0.4177784766399619], [-0.15082862196859403], [-1.5675554537544425], [0.1059807949010583], [-1.0314237907052548], [0.10738050230892661], [0.4797387711694885], [0.17899324171906894], [0.15586402366237107], [-1.4594063978616518], [0.6660838884208087], [-1.829559542282138], [1.1199455884581089], [-0.6154197078229432], [1.2114761062523418], [0.287729679226632], [1.1386036493975114], [0.12395217799839878], [-0.6378782845445471], [-1.1460652193088368], [1.0798855029728955], [0.5063566377215749], [-0.48090072085766017], [-1.252553872018402], [0.40633824439719923], [-0.3656770050240939], [0.4999319875025066], [0.5076463809031105], [-1.1325996374386667], [-0.16020350443344553], [1.229528913945781], [1.5018375018468904]], [[-1.293865990878731], [-0.1912474786277969], [-1.7293265772418682], [-0.34102698139176196], [2.0172111397022867], [1.1837127278340815], [1.1405809758529184], [-0.7364583363638436], [1.5167894522328678], [1.099284908642794], [0.4999102503045963], [-0.1856252105214415], [-0.26750183673378075], [0.15387592345119377], [-0.9448878422782732], [1.0065114724239739], [0.41604179120210677], [-0.6962215042287834], [0.4530386033568199], [-1.5632858558450407], [-0.021199444605690305], [1.3351627857488448], [1.217370940372274], [-0.999622337418622], [-1.0445330690178067], [-1.9039309895088365], [0.7916419825320474], [-0.3409655144180022], [-0.8464951179557654], [-0.06529039980541891], [1.2490897000165821], [0.2928522968942884], [0.44090862106576356], [-0.5781721157180304], [-0.45179520172211707], [1.296796859313575], [0.5041289871004744], [-0.6254076479623604], [0.8470302884639473], [0.39808068442101147], [-0.25242585281166885], [-1.1214641064949233], [-0.5230377332943118], [-0.8906948056895289], [-0.8935573309881503], [0.5976531667608753], [-0.25988282889794206], [-0.5087610324389297], [0.5240918464930765], [-0.757021085587125], [-1.2197849364438424], [0.5496193972646165], [2.2483613862423466], [0.2377797912067532], [-0.15822071277389602], [-0.881645139680074], [-1.4176837074211723], [1.9584248810654132], [-1.3972630882237596], [-0.15034440650818534], [-0.24513661921805194], [0.0966012051846469], [-1.0427759815443058], [1.7784355870596733]], [[-1.1126587909331265], [0.06295638380477055], [-0.3994711946278985], [0.7699591524275243], [0.996443749860034], [-0.6728798487510892], [-0.6537596139768106], [-1.7503980952712364], [0.5685120172206222], [-0.3032955656300531], [0.20141313612344067], [-0.8672258052292472], [-1.721890248776769], [-1.0536878587529863], [1.1718644653869443], [0.054708310115843886], [1.6955702299777544], [-0.17694929164963596], [-0.26589587100380474], [-3.0844751763483482], [-1.222062405153709], [0.986057838119937], [-0.8213586721729754], [0.8716651835895957], [-0.3370605929911419], [1.0137869022673616], [-0.7487669599631658], [0.20123344533198678], [-0.9062209866081784], [1.4078856101219661], [-0.19287933488505035], [-1.310374554103916], [0.6769083416368524], [-0.4112628394014945], [0.04911828079777383], [-0.5101488039140234], [-0.35778096889651967], [-0.48626078295323005], [-0.08986875067239435], [0.8759740813717102], [-1.5572113714741682], [-0.5666909969493653], [-1.8441151221049232], [3.2945054674631398], [0.28207768767255925], [0.5190533820470944], [-1.065363926733201], [-1.0131977599390027], [0.9929741256128826], [-0.03839021998418948], [-0.4471421312215299], [-0.41054973496007724], [-2.020489505495433], [-1.507782938314512], [0.19552134190827886], [0.3052617234793389], [-1.1546613376156336], [0.9004217029055956], [-0.48616121690256703], [-0.4231376650609985], [-0.6334525804627125], [0.28341204836146333], [-1.6217132068162714], [-0.29752587244317497]], [[0.9027073888082685]]]