[[[-1.3895823035514463], [2.6699326435345503], [-0.4681173449879342], [-1.49768855128879], [2.369857217879266], [0.36878787518606515], [1.5236299178224146], [1.226308423306286], [-0.29466556807157107], [-1.1936663768393798], [1.7311476646578714], [-0.5146546830189902], [-1.9447030403223313], [-3.1764746227316296], [1.4886914161508873], [0.3492174523606721], [0.46050441830205247], [-0.8360679940170834], [0.9856278189157819], [-0.7246961818858846], [-0.3426179989277673], [-0.18166046307327066], [0.31669111508888054], [0.35487015994397614], [0.4149358033013239], [-0.49077843298638], [-3.516975292725167], [-2.248808299782386], [-0.5299403598424804], [1.4474114822156865], [1.2208000654693116], [-0.36466955865909617], [0.41459144378382634], [-0.15115710123627507], [-1.5675554537544425], [0.10482978138917277], [-1.0314237907052548], [0.10937287124103881], [0.47891968235419674], [0.16792846339417128], [0.15504666247549406], [-1.4594063978616518], [0.6628048246409501], [-1.829559542282138], [1.11712905554347], [-0.6154197078229432], [1.2053438048896652], [0.2852254184604677], [1.1328421409545104], [0.12208560246887283], [-0.6378782845445471], [-1.1460652193088368], [1.079568635335491], [0.5057325547140258], [-0.48090072085766017], [-1.252553872018402], [0.4045606314247754], [-0.3656770050240939], [0.4986909247346317], [0.5103437151649254], [-1.1325996374386667], [-0.15794752221607272], [1.2252804954032086], [1.4990832058544985]], [[-1.293865990878731], [-0.19168863804124422], [-1.7293265772418682], [-0.34100986198910926], [2.0136006550320262], [1.184150753658864], [1.1398524706442925], [-0.7364583363638436], [1.5174878490957888], [1.0983336516180122], [0.5005203483295304], [-0.18623272089270196], [-0.26758964088118353], [0.15392780409905438], [-0.9467161298039818], [0.9953280137862303], [0.41544164508570786], [-0.6962215042287834], [0.45219132788832056], [-1.5632858558450407], [-0.021199444605690305], [1.3329150562325403], [1.2139480727362248], [-0.999622337418622], [-1.0445330690178067], [-1.9039309895088365], [0.7888538892854304], [-0.3409655144180022], [-0.8464951179557654], [-0.06539680319532763], [1.2492614926406869], [0.28914600666076684], [0.44119418476355077], [-0.5781721157180304], [-0.4512394357465205], [1.296291480061154], [0.5004807904581651], [-0.6254479375952358], [0.8470464354077724], [0.39517163446739195], [-0.2546070883925184], [-1.1214641064949233], [-0.5231151482624056], [-0.8906948056895289], [-0.8935573309881503], [0.5964025917014876], [-0.25988282889794206], [-0.5081408667127332], [0.5240918464930765], [-0.7567492825615508], [-1.2187384976074007], [0.5475849239500064], [2.248586691549609], [0.2377797912067532], [-0.16521377795186648], [-0.881645139680074], [-1.4176837074211723], [1.956416668334947], [-1.3972630882237596], [-0.15034440650818534], [-0.24513661921805194], [0.09760507536444837], [-1.0427759815443058], [1.7760873356189473]], [[-1.1126587909331265], [0.06295638380477055], [-0.3989864286527691], [0.7673809016212361], [0.9946170425730897], [-0.6739712027079637], [-0.6537596139770431], [-1.7503980952712364], [0.5664260171493359], [-0.30329557143229224], [0.20141157947415356], [-0.8671150103127002], [-1.721890248776769], [-1.0536878587529863], [1.1718644653869443], [0.054572613286146474], [1.6952653175883874], [-0.17823377035104024], [-0.2659811659375787], [-3.0844751763483482], [-1.222062405153709], [0.985865883011569], [-0.8213586721729754], [0.8719106679937688], [-0.3370605595990187], [1.0136982567889932], [-0.7487669599631658], [0.20110487176955716], [-0.9062209866081784], [1.4053554939121964], [-0.1955259334148575], [-1.310374554103916], [0.6768450845007713], [-0.4131919872507074], [0.04786449168183233], [-0.5104174584700607], [-0.3577994131009022], [-0.4862613455890522], [-0.08986875067420154], [0.873626794175094], [-1.5572114760401066], [-0.5666910519559089], [-1.8441151221049232], [3.2940420053815327], [0.28205403887906133], [0.5188530547192776], [-1.065363926733201], [-1.0131977599390027], [0.9917334185851235], [-0.0368450221144835], [-0.44727407317829626], [-0.40987131404720045], [-2.020489505495433], [-1.507782938314512], [0.19552134190827886], [0.3053075694442253], [-1.154660960526313], [0.9001833973119183], [-0.48616121690256703], [-0.4231376650609985], [-0.6334525804627125], [0.28344225857970484], [-1.6217132068162714], [-0.2975722830769933]], [[0.9030772867446172]]]