[[[-1.3895823035514463], [2.6693664782326336], [-0.4681173449879342], [-1.49768855128879], [2.3701736072667074], [0.36860919153736105], [1.5241758118656412], [1.2263547064414364], [-0.29468582864140774], [-1.1936663768393798], [1.7316050436666677], [-0.5146546830189902], [-1.9447030403223313], [-3.1764746227316296], [1.4893091390573423], [0.34919511574912937], [0.46102132997855666], [-0.8360679940170834], [0.9846412312502134], [-0.7246961818858846], [-0.3426179989277673], [-0.1816907907967288], [0.3165026617625753], [0.3561749947951929], [0.415275586800566], [-0.49077843298638], [-3.516975292725167], [-2.248808299782386], [-0.5299403598424804], [1.4470369999814816], [1.2208443982709387], [-0.36466955865909617], [0.4145330066440228], [-0.15112561671890545], [-1.5675554537544425], [0.10568516109401041], [-1.0314237907052548], [0.10893828298577592], [0.4789887881582827], [0.16878727469554278], [0.15486105826878988], [-1.4594063978616518], [0.6624863672009426], [-1.829559542282138], [1.1177818162254407], [-0.6154197078229432], [1.2051900112830551], [0.28533029544515703], [1.13406439759768], [0.12224427627937966], [-0.6378782845445471], [-1.1460652193088368], [1.0795864476296777], [0.5063131466928874], [-0.48090072085766017], [-1.252553872018402], [0.4052093840698389], [-0.3656770050240939], [0.4985540134880858], [0.5102942808677803], [-1.1325996374386667], [-0.15799646909072262], [1.2256795127733449], [1.5000134720210807]], [[-1.293865990878731], [-0.19165951742002169], [-1.7293265772418682], [-0.3410098851237572], [2.01397979410202], [1.1839790690659397], [1.1397328501906985], [-0.7364583363638436], [1.5174786677772196], [1.0984818005950838], [0.5004085314797165], [-0.18612050445027667], [-0.2675871767193381], [0.1536975288843518], [-0.9464355040206823], [0.9955435585932813], [0.41539759079577326], [-0.6962215042287834], [0.452255591703058], [-1.5632858558450407], [-0.021199444605690305], [1.333182622502853], [1.2142105384063662], [-0.999622337418622], [-1.0445330690178067], [-1.9039309895088365], [0.7890819766691703], [-0.3409655144180022], [-0.8464951179557654], [-0.06533977079019425], [1.2490890952116969], [0.28922188734085547], [0.4411960651891928], [-0.5781721157180304], [-0.4513244549875001], [1.2961934762626695], [0.5011659664989896], [-0.62544795121776], [0.847044560821733], [0.3954735272065367], [-0.2546430017131389], [-1.1214641064949233], [-0.5230486864230963], [-0.8906948056895289], [-0.8935573309881503], [0.5964693921271874], [-0.25988282889794206], [-0.5081898096303655], [0.5240918464930765], [-0.7567550477192857], [-1.218744746548115], [0.5476628027040901], [2.2481583209629075], [0.2377797912067532], [-0.16454748264543065], [-0.881645139680074], [-1.4176837074211723], [1.9566561350382068], [-1.3972630882237596], [-0.15034440650818534], [-0.24513661921805194], [0.09737319833267753], [-1.0427759815443058], [1.7761415053829306]], [[-1.1126587909331265], [0.06295638380477055], [-0.3990468202603833], [0.7675633395494991], [0.9947680795518575], [-0.6739624661974895], [-0.6537596139770431], [-1.7503980952712364], [0.5666963817284028], [-0.3032955714320516], [0.20141158362726982], [-0.8671387036937014], [-1.721890248776769], [-1.0536878587529863], [1.1718644653869443], [0.05460198699146087], [1.6952454708007025], [-0.1782002298403792], [-0.2659275635592671], [-3.0844751763483482], [-1.222062405153709], [0.9859181047178575], [-0.8213586721729754], [0.8719109044172563], [-0.3370605595990569], [1.0136090702686924], [-0.7487669599631658], [0.2011183578731548], [-0.9062209866081784], [1.4055632200711852], [-0.1954618546063537], [-1.310374554103916], [0.6768459377536499], [-0.4131383914492565], [0.048050376386232135], [-0.5104157714010713], [-0.3578098578467025], [-0.48626134212535066], [-0.08986875067420154], [0.8739610352985054], [-1.5572114760002818], [-0.5666910518562845], [-1.8441151221049232], [3.29406098000008], [0.2820016361117444], [0.5188693624807225], [-1.065363926733201], [-1.0131977599390027], [0.9919709996158919], [-0.03694261619690345], [-0.447244667712068], [-0.4099035911690019], [-2.020489505495433], [-1.507782938314512], [0.19552134190827886], [0.3052356087394027], [-1.154660960860847], [0.9002174665761687], [-0.48616121690256703], [-0.4231376650609985], [-0.6334525804627125], [0.2833865279084152], [-1.6217132068162714], [-0.2975953944050908]], [[0.9029457514820031]]]