[[[-1.3895823035514463], [2.670207488008352], [-0.4681173449879342], [-1.49768855128879], [2.371698532199371], [0.3687668812313062], [1.5247637329381292], [1.227032399659347], [-0.29472575559920144], [-1.1936663768393798], [1.7322161759946326], [-0.5146546830189902], [-1.9447030403223313], [-3.1764746227316296], [1.4902902070289645], [0.3493650569465759], [0.46162179402267334], [-0.8360679940170834], [0.9844347759575593], [-0.7246961818858846], [-0.3426179989277673], [-0.18176770537859518], [0.31642661846660414], [0.3568591282837205], [0.4153727609949041], [-0.49077843298638], [-3.516975292725167], [-2.248808299782386], [-0.5299403598424804], [1.4477684391046652], [1.2215580747826384], [-0.36466955865909617], [0.41465334538632626], [-0.1510777897545223], [-1.5675554537544425], [0.10641006311497836], [-1.0314237907052548], [0.1077964421575411], [0.4792722386685322], [0.17015878606171453], [0.154990967523704], [-1.4594063978616518], [0.6627758946407672], [-1.829559542282138], [1.1186727356603887], [-0.6154197078229432], [1.2058470947656645], [0.285630143979641], [1.1349913319995575], [0.12253726548747258], [-0.6378782845445471], [-1.1460652193088368], [1.0799655795285479], [0.5065931701168096], [-0.48090072085766017], [-1.252553872018402], [0.40584508317245327], [-0.3656770050240939], [0.4988175730294549], [0.510217705020043], [-1.1325996374386667], [-0.15826407660736444], [1.2264252645713491], [1.5009222295570541]], [[-1.293865990878731], [-0.19153561498077523], [-1.7293265772418682], [-0.3410100037085439], [2.014423691379113], [1.183948208167896], [1.1398066019870907], [-0.7364583363638436], [1.5173823710588474], [1.0984623382022143], [0.5001391838623832], [-0.18592587911275268], [-0.2675676092338338], [0.15376893676121142], [-0.9461741788931153], [0.9957895196146263], [0.41530909009175737], [-0.6962215042287834], [0.45234040891183], [-1.5632858558450407], [-0.021199444605690305], [1.333547306149804], [1.2146216604066935], [-0.999622337418622], [-1.0445330690178067], [-1.9039309895088365], [0.7892733397794109], [-0.3409655144180022], [-0.8464951179557654], [-0.06533181607923115], [1.2491429980619582], [0.2894974710661733], [0.4412244154448231], [-0.5781721157180304], [-0.45139675569794024], [1.2962722204517994], [0.5018758570738685], [-0.6254480185308832], [0.8470393249171879], [0.39591368938543187], [-0.2541100844654496], [-1.1214641064949233], [-0.5229765490558703], [-0.8906948056895289], [-0.8935573309881503], [0.596728556471977], [-0.25988282889794206], [-0.5083072872525223], [0.5240918464930765], [-0.7567386510922544], [-1.218783009647181], [0.5478403516832822], [2.248403016374476], [0.2377797912067532], [-0.1640629714180026], [-0.881645139680074], [-1.4176837074211723], [1.956944745526121], [-1.3972630882237596], [-0.15034440650818534], [-0.24513661921805194], [0.09715487769838092], [-1.0427759815443058], [1.7763268107111356]], [[-1.1126587909331265], [0.06295638380477055], [-0.3992962171495777], [0.7675968728558975], [0.9947334280781878], [-0.6738399266705587], [-0.6537596139770431], [-1.7503980952712364], [0.5670827738703119], [-0.30329557142890123], [0.2014116002480962], [-0.8671975491999164], [-1.721890248776769], [-1.0536878587529863], [1.1718644653869443], [0.0546018639244965], [1.695279743450365], [-0.17794252077313605], [-0.26601916915835044], [-3.0844751763483482], [-1.222062405153709], [0.9859134006446396], [-0.8213586721729754], [0.8718723510049267], [-0.3370605596005914], [1.0136528032634629], [-0.7487669599631658], [0.20112480526832266], [-0.9062209866081784], [1.4058219101520057], [-0.19494333889534618], [-1.310374554103916], [0.6768514946629012], [-0.4127052216792116], [0.04834972302780157], [-0.5103380028720609], [-0.35780461862553714], [-0.4862613288243509], [-0.08986875067420153], [0.8743900646295198], [-1.5572114757895714], [-0.5666910514672611], [-1.8441151221049232], [3.2940937420212464], [0.28202457794524655], [0.5188799403483875], [-1.065363926733201], [-1.0131977599390027], [0.9923610384660271], [-0.03718418431703042], [-0.4472240374093474], [-0.410104555110652], [-2.020489505495433], [-1.507782938314512], [0.19552134190827886], [0.3052600050958602], [-1.1546609625447326], [0.9002235466485575], [-0.48616121690256703], [-0.4231376650609985], [-0.6334525804627125], [0.28340665294968104], [-1.6217132068162714], [-0.29758164871830173]], [[0.9029711557568133]]]