[[[-1.3895823035514463], [2.6698272800298395], [-0.4681173449879342], [-1.49768855128879], [2.371245689443144], [0.3686808207592135], [1.5246235938452122], [1.2268054898240028], [-0.2947097574329622], [-1.1936663768393798], [1.7320766436462938], [-0.5146546830189902], [-1.9447030403223313], [-3.1764746227316296], [1.490065621858857], [0.34930150418754363], [0.4615182772898729], [-0.8360679940170834], [0.9842999604676351], [-0.7246961818858846], [-0.3426179989277673], [-0.18175173713894036], [0.3163894907974646], [0.3569190666964747], [0.4153810809381803], [-0.49077843298638], [-3.516975292725167], [-2.248808299782386], [-0.5299403598424804], [1.4474652218196167], [1.2213132443986165], [-0.36466955865909617], [0.4145800511135609], [-0.1510658333443316], [-1.5675554537544425], [0.10535034736063878], [-1.0314237907052548], [0.10799202087258927], [0.479190311930897], [0.16976683690410146], [0.15502473829512262], [-1.4594063978616518], [0.6626208416027062], [-1.829559542282138], [1.118501527562905], [-0.6154197078229432], [1.2055984883228057], [0.2855505950176783], [1.1348642135566969], [0.12248953403035158], [-0.6378782845445471], [-1.1460652193088368], [1.079851572263384], [0.5065895096346866], [-0.48090072085766017], [-1.252553872018402], [0.4057698365450051], [-0.3656770050240939], [0.4987227314443505], [0.5102450647677007], [-1.1325996374386667], [-0.15816396051226314], [1.2262435715760736], [1.500784498176651]], [[-1.293865990878731], [-0.1915594625626969], [-1.7293265772418682], [-0.34100997041402187], [2.0143409403580375], [1.1839328415778596], [1.1397736770485871], [-0.7364583363638436], [1.517395886866073], [1.0984780933771514], [0.5001899327004384], [-0.18597062260684713], [-0.26757434505169986], [0.15372145620547048], [-0.946213084445354], [0.9956684390594904], [0.4153181881257566], [-0.6962215042287834], [0.45230728197251846], [-1.5632858558450407], [-0.021199444605690305], [1.3334775700379173], [1.214525018253476], [-0.999622337418622], [-1.0445330690178067], [-1.9039309895088365], [0.7892326187678632], [-0.3409655144180022], [-0.8464951179557654], [-0.06531594256562027], [1.2491057986936984], [0.2893963322364438], [0.4412144962890121], [-0.5781721157180304], [-0.4513900437786058], [1.2962301075819478], [0.5017850457974253], [-0.6254479999766576], [0.8470405156432204], [0.39582078635713824], [-0.25425069023051694], [-1.1214641064949233], [-0.5229761121416187], [-0.8906948056895289], [-0.8935573309881503], [0.5966676584456025], [-0.25988282889794206], [-0.5082842521344312], [0.5240918464930765], [-0.7567406372271986], [-1.2187741710780722], [0.5477805854614215], [2.2483066777694205], [0.2377797912067532], [-0.16414030256966858], [-0.881645139680074], [-1.4176837074211723], [1.9568947583810892], [-1.3972630882237596], [-0.15034440650818534], [-0.24513661921805194], [0.09718471560590104], [-1.0427759815443058], [1.7762625540528687]], [[-1.1126587909331265], [0.06295638380477055], [-0.3992476274011575], [0.7676031140342285], [0.9947551171493012], [-0.6739101696993294], [-0.6537596139770431], [-1.7503980952712364], [0.5670173555206807], [-0.3032955714300815], [0.2014115954606891], [-0.86718563432278], [-1.721890248776769], [-1.0536878587529863], [1.1718644653869443], [0.05460362111796501], [1.6952669829821325], [-0.1779972893206487], [-0.2659847003719324], [-3.0844751763483482], [-1.222062405153709], [0.9859180254029182], [-0.8213586721729754], [0.871889460641569], [-0.33706055960039516], [1.0136327705434198], [-0.7487669599631658], [0.20112337923144788], [-0.9062209866081784], [1.4057470083615087], [-0.19505365109244313], [-1.310374554103916], [0.6768496046320387], [-0.4127897679649152], [0.04829578828137186], [-0.5103557777566164], [-0.3578070152844112], [-0.4862613322529985], [-0.08986875067420154], [0.8743212987505362], [-1.557211475851381], [-0.5666910515815112], [-1.8441151221049232], [3.294083784841951], [0.2820137526567682], [0.5188773244293253], [-1.065363926733201], [-1.0131977599390027], [0.992289920039091], [-0.03713620304581036], [-0.44722736746159847], [-0.41005724909131014], [-2.020489505495433], [-1.507782938314512], [0.19552134190827886], [0.30524751264519057], [-1.154660962064082], [0.9002234848525599], [-0.48616121690256703], [-0.4231376650609985], [-0.6334525804627125], [0.28339659068994927], [-1.6217132068162714], [-0.2975877105462481]], [[0.9029541257867618]]]