[[[-1.3895823035514463], [2.6704542791546713], [-0.4681173449879342], [-1.49768855128879], [2.372546168931993], [0.36885257914179614], [1.5252762570282978], [1.227425763477142], [-0.2947379596188471], [-1.1936663768393798], [1.7326836012400502], [-0.5146546830189902], [-1.9447030403223313], [-3.1764746227316296], [1.4909659202249455], [0.34949826200451634], [0.4620372092755286], [-0.8360679940170834], [0.9842285089122651], [-0.7246961818858846], [-0.3426179989277673], [-0.1818069952965385], [0.31655273212905943], [0.358279912084081], [0.4155330621634459], [-0.49077843298638], [-3.516975292725167], [-2.248808299782386], [-0.5299403598424804], [1.4480692753594], [1.2220251312550632], [-0.36466955865909617], [0.41482268992112614], [-0.1510493000090713], [-1.5675554537544425], [0.10617435930941735], [-1.0314237907052548], [0.10779154500977611], [0.4793453213820217], [0.17094656754287985], [0.15497483190363892], [-1.4594063978616518], [0.6628573553223718], [-1.829559542282138], [1.1191527368060252], [-0.6154197078229432], [1.2061692604028431], [0.2858374582323493], [1.1358124383071788], [0.1226869469232859], [-0.6378782845445471], [-1.1460652193088368], [1.0800878579675846], [0.5068920405072778], [-0.48090072085766017], [-1.252553872018402], [0.4062281395619888], [-0.3656770050240939], [0.4988601367772193], [0.5100937283510758], [-1.1325996374386667], [-0.15843873788387933], [1.2268176312901824], [1.5015349321024258]], [[-1.293865990878731], [-0.19150238063866123], [-1.7293265772418682], [-0.34101010442800256], [2.0147931902610297], [1.1838327441153744], [1.1398139249697798], [-0.7364583363638436], [1.5173468893701032], [1.098599388881428], [0.5000492843384257], [-0.18584934172017195], [-0.267556640875587], [0.15366861071262053], [-0.9459664832362193], [0.996428819979638], [0.4153102064394965], [-0.6962215042287834], [0.45236400997598264], [-1.5632858558450407], [-0.021199444605690305], [1.3337763189624017], [1.2148981853460314], [-0.999622337418622], [-1.0445330690178067], [-1.9039309895088365], [0.789504612813798], [-0.3409655144180022], [-0.8464951179557654], [-0.06529055971528608], [1.2490588630239934], [0.28961394485014724], [0.44123089006575883], [-0.5781721157180304], [-0.4514719890830622], [1.2962644526196319], [0.5023890440580442], [-0.6254480729162275], [0.8470368366963964], [0.3961721658454168], [-0.25396850897900203], [-1.1214641064949233], [-0.5229197761708944], [-0.8906948056895289], [-0.8935573309881503], [0.5968065062057404], [-0.25988282889794206], [-0.5083518420705432], [0.5240918464930765], [-0.7567247702980509], [-1.2188233305035407], [0.5479458675164848], [2.2482055067173], [0.2377797912067532], [-0.1634835348777556], [-0.881645139680074], [-1.4176837074211723], [1.9571998387159861], [-1.3972630882237596], [-0.15034440650818534], [-0.24513661921805194], [0.0970169873718227], [-1.0427759815443058], [1.776435495158146]], [[-1.1126587909331265], [0.06295638380477055], [-0.39938127142036056], [0.7678293758119379], [0.9948803821528336], [-0.6738841619402941], [-0.6537596139770431], [-1.7503980952712364], [0.5673028779763296], [-0.30329557142469077], [0.20141161267244853], [-0.867208300472685], [-1.721890248776769], [-1.0536878587529863], [1.1718644653869443], [0.05462793335340118], [1.695279033811335], [-0.17787989971818383], [-0.2660304900013017], [-3.0844751763483482], [-1.222062405153709], [0.9859582842602914], [-0.8213586721729754], [0.8718474107452681], [-0.3370605596097913], [1.013595088431914], [-0.7487669599631658], [0.20113933055938607], [-0.9062209866081784], [1.4059954142100752], [-0.1948199790653312], [-1.310374554103916], [0.676854328376894], [-0.4125904393413554], [0.04851511150558031], [-0.5103302824120455], [-0.3578113581824614], [-0.4862613205832788], [-0.08986875067420148], [0.8746470200724668], [-1.557211475601129], [-0.5666910511887107], [-1.8441151221049232], [3.2941268811057616], [0.2819896039754191], [0.5188997830971016], [-1.065363926733201], [-1.0131977599390027], [0.9924976183464939], [-0.03727884983743746], [-0.4472053193789144], [-0.41019157290071984], [-2.020489505495433], [-1.507782938314512], [0.19552134190827886], [0.30520813407137815], [-1.1546609638718108], [0.9002570394093958], [-0.48616121690256703], [-0.4231376650609985], [-0.6334525804627125], [0.28336718632789426], [-1.6217132068162714], [-0.297596119518579]], [[0.902857405421969]]]