[[[-1.3895823035514463], [2.681914373034177], [-0.4681173449879342], [-1.49768855128879], [2.382910536665605], [0.37310480015927183], [1.5259350489642811], [1.233301058793981], [-0.2958067983136188], [-1.1936663768393798], [1.734704269056867], [-0.5146546830189902], [-1.9447030403223313], [-3.1764746227316296], [1.494274589882733], [0.3518947260968381], [0.46180303482479984], [-0.8360679940170834], [0.9928957478220368], [-0.7246961818858846], [-0.3426179989277673], [-0.18172074563694776], [0.3203589721910565], [0.3641098462278075], [0.413334637494486], [-0.49077843298638], [-3.516975292725167], [-2.248808299782386], [-0.5299403598424804], [1.4573857743638434], [1.2288170913096053], [-0.36466955865909617], [0.41776732378289066], [-0.1510558151450682], [-1.5675554537544425], [0.0979891316874228], [-1.0314237907052548], [0.10633365086797021], [0.48109444835106924], [0.17505599301328725], [0.1569481634812135], [-1.4594063978616518], [0.6667501746460159], [-1.829559542282138], [1.1182249746376782], [-0.6154197078229432], [1.2129043058030005], [0.2870247912573516], [1.1338333306585309], [0.12397621353202969], [-0.6378782845445471], [-1.1460652193088368], [1.0823549847495824], [0.5036579622777044], [-0.48090072085766017], [-1.252553872018402], [0.4042275568903273], [-0.3656770050240939], [0.5025373238705753], [0.5070076963107032], [-1.1325996374386667], [-0.16048241642401076], [1.228119270109102], [1.4999170699279056]], [[-1.293865990878731], [-0.19111913710001796], [-1.7293265772418682], [-0.3411287751884132], [2.0172108897178957], [1.1831036690728254], [1.1415388364183492], [-0.7364583363638436], [1.5166210985912063], [1.0978379268662346], [0.4985490636303511], [-0.18523729141846956], [-0.267356343409514], [0.15572580778554976], [-0.9476475105438931], [1.0052441538930734], [0.4154380191826189], [-0.6962215042287834], [0.4523109065443993], [-1.5632858558450407], [-0.021199444605690305], [1.3348229814550128], [1.2166307672468475], [-0.999622337418622], [-1.0445330690178067], [-1.9039309895088365], [0.7898605395793604], [-0.3409655144180022], [-0.8464951179557654], [-0.06457617927798998], [1.250571325732154], [0.29213609404735924], [0.440817870709926], [-0.5781721157180304], [-0.45129738301387196], [1.2980632656541058], [0.4992533057360208], [-0.6254717125935135], [0.8470281336546783], [0.3977714047647351], [-0.25219743493506425], [-1.1214641064949233], [-0.5230198220413854], [-0.8906948056895289], [-0.8935573309881503], [0.5980274271949774], [-0.25988282889794206], [-0.508463574180206], [0.5240918464930765], [-0.7567889438075318], [-1.2195988792398562], [0.548725583650037], [2.251849471975839], [0.2377797912067532], [-0.16510192978006522], [-0.881645139680074], [-1.4176837074211723], [1.9578806881135915], [-1.3972630882237596], [-0.15034440650818534], [-0.24513661921805194], [0.09840154874071882], [-1.0427759815443058], [1.7781728798290775]], [[-1.1126587909331265], [0.06295638380477055], [-0.3996987728949406], [0.766053388954785], [0.9939084916496216], [-0.6742349843790953], [-0.6537596139768106], [-1.7503980952712364], [0.5680040434775933], [-0.30329556058482643], [0.20142535801781297], [-0.8667984643710871], [-1.721890248776769], [-1.0536878587529863], [1.1718644653869443], [0.05455854693913651], [1.6959707639549022], [-0.17648984255751574], [-0.26824637477529], [-3.0844751763483482], [-1.222062405153709], [0.9856641846333396], [-0.8213586721729754], [0.8722579498967471], [-0.33706097706177895], [1.0146315952131058], [-0.7487669599631658], [0.2013093511514036], [-0.9062209866081784], [1.406911574821975], [-0.1919495950267463], [-1.310374554103916], [0.6770545826366088], [-0.41064982537890515], [0.04879673260513118], [-0.5099623655918], [-0.3576409718518029], [-0.4862589561798245], [-0.08986875067239435], [0.8750235936281976], [-1.5572109152875475], [-0.5666909005658676], [-1.8441151221049232], [3.294670463910348], [0.28250915087771516], [0.5190591291199191], [-1.065363926733201], [-1.0131977599390027], [0.9925330879009127], [-0.03712121964763787], [-0.4508307271638731], [-0.41072459620501267], [-2.020489505495433], [-1.507782938314512], [0.19552134190827886], [0.30584971181644915], [-1.1546630641108249], [0.900281629133697], [-0.48616121690256703], [-0.4231376650609985], [-0.6334525804627125], [0.2838468268868101], [-1.6217132068162714], [-0.2971815059309591]], [[0.9046169985834793]]]