[[[-1.3895823035514463], [2.6737352570475403], [-0.4681173449879342], [-1.49768855128879], [2.375831329848128], [0.3701861196437105], [1.525304495755356], [1.2293717293732593], [-0.29485738420391744], [-1.1936663768393798], [1.7325636692861361], [-0.5146546830189902], [-1.9447030403223313], [-3.1764746227316296], [1.491821835813025], [0.35038486015469306], [0.4618304935621856], [-0.8360679940170834], [0.9876496584838426], [-0.7246961818858846], [-0.3426179989277673], [-0.18191849570499063], [0.3183653108095881], [0.36019159400308903], [0.41477835341399505], [-0.49077843298638], [-3.516975292725167], [-2.248808299782386], [-0.5299403598424804], [1.4513239495788866], [1.2244016984491766], [-0.36466955865909617], [0.4163925944009421], [-0.15096551401070965], [-1.5675554537544425], [0.1057218723869918], [-1.0314237907052548], [0.10723488305312248], [0.479517652269064], [0.17245751404782936], [0.15533359495086677], [-1.4594063978616518], [0.6647661825569898], [-1.829559542282138], [1.118496755099256], [-0.6154197078229432], [1.2086016775257395], [0.28646839659938517], [1.1349913164224419], [0.12292523412918283], [-0.6378782845445471], [-1.1460652193088368], [1.080177422467206], [0.5058187505455274], [-0.48090072085766017], [-1.252553872018402], [0.4053912098769073], [-0.3656770050240939], [0.49941359401762203], [0.5089280725423697], [-1.1325996374386667], [-0.15895535272978384], [1.2270816718526765], [1.5001705598978126]], [[-1.293865990878731], [-0.19137770082238514], [-1.7293265772418682], [-0.3410110305354929], [2.015275118205842], [1.1839614954184212], [1.1402175612168823], [-0.7364583363638436], [1.51716678786841], [1.0984934392012629], [0.49988603548059307], [-0.18568128296812966], [-0.2675562858435727], [0.15405121548113204], [-0.9458656307386837], [1.0008294434513603], [0.415300964381812], [-0.6962215042287834], [0.4524585379308746], [-1.5632858558450407], [-0.021199444605690305], [1.3340456756220795], [1.2153969565633975], [-0.999622337418622], [-1.0445330690178067], [-1.9039309895088365], [0.7897204428168708], [-0.3409655144180022], [-0.8464951179557654], [-0.06537583829559761], [1.2494057876812652], [0.290763232261318], [0.44126847473347774], [-0.5781721157180304], [-0.4514808934482573], [1.2966073471788069], [0.5024907584343871], [-0.6254485542284679], [0.8470325646055956], [0.39653596171021765], [-0.25311376407291575], [-1.1214641064949233], [-0.5228619801350373], [-0.8906948056895289], [-0.8935573309881503], [0.5971572440835083], [-0.25988282889794206], [-0.5084736773410257], [0.5240918464930765], [-0.7567229355623575], [-1.2189982532744983], [0.5482706464283648], [2.249111389275986], [0.2377797912067532], [-0.16255559066476125], [-0.881645139680074], [-1.4176837074211723], [1.957457805678246], [-1.3972630882237596], [-0.15034440650818534], [-0.24513661921805194], [0.09706383641319616], [-1.0427759815443058], [1.7769248425828792]], [[-1.1126587909331265], [0.06295638380477055], [-0.3996821462445463], [0.7679165313026074], [0.9948164272397941], [-0.6736363219648326], [-0.6537596139770414], [-1.7503980952712364], [0.5674848979380833], [-0.3032955713619268], [0.2014117113910105], [-0.8672419848997699], [-1.721890248776769], [-1.0536878587529863], [1.1718644653869443], [0.05458467216804886], [1.6954063359504454], [-0.17749918896314298], [-0.26619870397105877], [-3.0844751763483482], [-1.222062405153709], [0.985865725322203], [-0.8213586721729754], [0.871767390658358], [-0.3370605597533676], [1.0138508333537817], [-0.7487669599631658], [0.20114065626565156], [-0.9062209866081784], [1.4062700138839326], [-0.1940454267498237], [-1.310374554103916], [0.6768723134656666], [-0.41194485809161446], [0.04868110340387841], [-0.5101893580838054], [-0.35777990300810425], [-0.48626127308695943], [-0.08986875067420001], [0.8750203759704921], [-1.557211473304948], [-0.5666910486157182], [-1.8441151221049232], [3.294191776414703], [0.28213092345863006], [0.5189059511985129], [-1.065363926733201], [-1.0131977599390027], [0.992582709376813], [-0.037548018689219725], [-0.4472269686421441], [-0.410666986750597], [-2.020489505495433], [-1.507782938314512], [0.19552134190827886], [0.30538394335050656], [-1.1546609753601491], [0.9002245076817472], [-0.48616121690256703], [-0.4231376650609985], [-0.6334525804627125], [0.2835051606916968], [-1.6217132068162714], [-0.2975194546089017]], [[0.9031667918896915]]]