[[[-1.3895823035514463], [2.678655361528256], [-0.4681173449879342], [-1.49768855128879], [2.383075639163803], [0.3723157191392467], [1.5275094592349983], [1.2331854089385021], [-0.29577349624350746], [-1.1936663768393798], [1.7343367560247147], [-0.5146546830189902], [-1.9447030403223313], [-3.1764746227316296], [1.4951486632272486], [0.3517110665946954], [0.46334869097308923], [-0.8360679940170834], [0.9910786291739103], [-0.7246961818858846], [-0.3426179989277673], [-0.18174843197259646], [0.3204927870881405], [0.3676272220071363], [0.414514904853781], [-0.49077843298638], [-3.516975292725167], [-2.248808299782386], [-0.5299403598424804], [1.4561496310106596], [1.2290284605765276], [-0.36466955865909617], [0.41832611571640815], [-0.15091220288638305], [-1.5675554537544425], [0.10409545451421691], [-1.0314237907052548], [0.10825114303120227], [0.48011027044753907], [0.17908148117804543], [0.15662948522858755], [-1.4594063978616518], [0.6666845590269463], [-1.829559542282138], [1.1197146224742256], [-0.6154197078229432], [1.212684320405866], [0.2878681117654306], [1.1372547553827523], [0.12417587264119542], [-0.6378782845445471], [-1.1460652193088368], [1.0806218469890698], [0.5053409561552206], [-0.48090072085766017], [-1.252553872018402], [0.4056457367702411], [-0.3656770050240939], [0.5007150375690357], [0.5068582220724529], [-1.1325996374386667], [-0.16042162281715938], [1.2293810338197013], [1.5011243055749524]], [[-1.293865990878731], [-0.1911827809452542], [-1.7293265772418682], [-0.34108901296020044], [2.0175259434813646], [1.1836878821957044], [1.1408645931007588], [-0.7364583363638436], [1.5170489665774218], [1.0989273955294938], [0.4994094623677157], [-0.1852572972355912], [-0.26731728258444015], [0.15464905208462457], [-0.9454396413759045], [1.0080120001967758], [0.4160608175647239], [-0.6962215042287834], [0.4530673415856877], [-1.5632858558450407], [-0.021199444605690305], [1.335304699473832], [1.2173235532913702], [-0.999622337418622], [-1.0445330690178067], [-1.9039309895088365], [0.7913284704516385], [-0.3409655144180022], [-0.8464951179557654], [-0.06527785758670068], [1.249629627857079], [0.2931724824478428], [0.44077743003022796], [-0.5781721157180304], [-0.4517452988293195], [1.297363054120695], [0.5034053403134012], [-0.6254268100322061], [0.8470286111075499], [0.3982598577587762], [-0.25223798124191676], [-1.1214641064949233], [-0.523049351111808], [-0.8906948056895289], [-0.8935573309881503], [0.5979317755708429], [-0.25988282889794206], [-0.5087917061650238], [0.5240918464930765], [-0.7570534234127898], [-1.220140081039997], [0.5496419882773927], [2.249555060056563], [0.2377797912067532], [-0.15983272301896714], [-0.881645139680074], [-1.4176837074211723], [1.958557225455718], [-1.3972630882237596], [-0.15034440650818534], [-0.24513661921805194], [0.09695147403088396], [-1.0427759815443058], [1.7786905673680664]], [[-1.1126587909331265], [0.06295638380477055], [-0.3994430254466773], [0.7684457287401829], [0.9955568971046386], [-0.6730979524987748], [-0.6537596139768106], [-1.7503980952712364], [0.5686760386334392], [-0.3032955716128644], [0.20141902271018933], [-0.867136174933361], [-1.721890248776769], [-1.0536878587529863], [1.1718644653869443], [0.054756535458702287], [1.695748886757181], [-0.1767530784958873], [-0.26653543846367744], [-3.0844751763483482], [-1.222062405153709], [0.9861211078696035], [-0.8213586721729754], [0.8718390473923745], [-0.3370608948310824], [1.0139075981670929], [-0.7487669599631658], [0.20128253963824663], [-0.9062209866081784], [1.4077021235941458], [-0.1925992467492185], [-1.310374554103916], [0.6769348775565687], [-0.41105298429450404], [0.04923151059685967], [-0.510130084605943], [-0.35776184779628484], [-0.4862593651930569], [-0.08986875067239435], [0.875937942737033], [-1.557210988157713], [-0.5666909005658676], [-1.8441151221049232], [3.2947349056969464], [0.2821360727715869], [0.5191468752952997], [-1.065363926733201], [-1.0131977599390027], [0.9930554385095063], [-0.038492633695888935], [-0.447828867920163], [-0.41044978354084133], [-2.020489505495433], [-1.507782938314512], [0.19552134190827886], [0.30530116508417143], [-1.1546626704628462], [0.9005253193208025], [-0.48616121690256703], [-0.4231376650609985], [-0.6334525804627125], [0.2834396621866997], [-1.6217132068162714], [-0.29748810676694665]], [[0.902575442627497]]]