[[[-1.3895823035514463], [2.6762063054688707], [-0.4681173449879342], [-1.49768855128879], [2.3807381597250177], [0.37109878496000803], [1.5272853189113722], [1.2319646447061283], [-0.2953218355121637], [-1.1936663768393798], [1.7337287477799175], [-0.5146546830189902], [-1.9447030403223313], [-3.1764746227316296], [1.4941605504141897], [0.35117736082037615], [0.46295882202196026], [-0.8360679940170834], [0.9895165731980909], [-0.7246961818858846], [-0.3426179989277673], [-0.18208268096011343], [0.31998694941993655], [0.36686956778891533], [0.4150572206016051], [-0.49077843298638], [-3.516975292725167], [-2.248808299782386], [-0.5299403598424804], [1.454320387366831], [1.2276140495960608], [-0.36466955865909617], [0.4178967574005702], [-0.15082156056687104], [-1.5675554537544425], [0.10523823205821323], [-1.0314237907052548], [0.10710845381784621], [0.4797255004118997], [0.17773762654651618], [0.15583526153748792], [-1.4594063978616518], [0.6663133414761596], [-1.829559542282138], [1.1192375995997654], [-0.6154197078229432], [1.2113994652755802], [0.28756685847496727], [1.1374254466049314], [0.12377677355105628], [-0.6378782845445471], [-1.1460652193088368], [1.0799378535862139], [0.5059013037304861], [-0.48090072085766017], [-1.252553872018402], [0.4057638085756474], [-0.3656770050240939], [0.499919814423027], [0.507590490440635], [-1.1325996374386667], [-0.16000299424136555], [1.2289386623186567], [1.5008987108784313]], [[-1.293865990878731], [-0.1912692859225919], [-1.7293265772418682], [-0.34102034184275726], [2.016771522430087], [1.1838310002964991], [1.1406192896800702], [-0.7364583363638436], [1.516834047759163], [1.0990490481585296], [0.4999092660054036], [-0.1856261273503487], [-0.2675439072555816], [0.15402403598522074], [-0.9450961088136292], [1.0065618830877936], [0.41588831762315764], [-0.6962215042287834], [0.45292370732013343], [-1.5632858558450407], [-0.021199444605690305], [1.3349316471720394], [1.2170159316630487], [-0.999622337418622], [-1.0445330690178067], [-1.9039309895088365], [0.7912165266573078], [-0.3409655144180022], [-0.8464951179557654], [-0.0653324226808653], [1.249221227384082], [0.29285735413566893], [0.440969865883913], [-0.5781721157180304], [-0.4517004259569436], [1.296805590242025], [0.5036015343032727], [-0.6254285038605709], [0.8470304731771974], [0.3977560775383147], [-0.25238651314845933], [-1.1214641064949233], [-0.5230146452852766], [-0.8906948056895289], [-0.8935573309881503], [0.5975808478309554], [-0.25988282889794206], [-0.5086985167998314], [0.5240918464930765], [-0.7569772966571247], [-1.2195555009861856], [0.549403115925044], [2.2487885157332177], [0.2377797912067532], [-0.15914277418147632], [-0.881645139680074], [-1.4176837074211723], [1.9581797846289055], [-1.3972630882237596], [-0.15034440650818534], [-0.24513661921805194], [0.09676309749739967], [-1.0427759815443058], [1.778218462596545]], [[-1.1126587909331265], [0.06295638380477055], [-0.39952611767345875], [0.7695080168196774], [0.9960335438127931], [-0.6728916516725865], [-0.6537596139768106], [-1.7503980952712364], [0.5682802652224976], [-0.30329556757858545], [0.20141258832801398], [-0.8672468621085858], [-1.721890248776769], [-1.0536878587529863], [1.1718644653869443], [0.0546479369937652], [1.6955690986595346], [-0.176969755847952], [-0.26602974942649127], [-3.0844751763483482], [-1.222062405153709], [0.9859476013637253], [-0.8213586721729754], [0.871682771560217], [-0.33706057390564687], [1.013918070924101], [-0.7487669599631658], [0.20120818248306033], [-0.9062209866081784], [1.407479586964803], [-0.19293106118046593], [-1.310374554103916], [0.6769102644392828], [-0.4112852752560275], [0.04897126643829029], [-0.5101095597062832], [-0.3577653123588902], [-0.4862609433332348], [-0.08986875067327657], [0.8757509621274747], [-1.557211414923605], [-0.5666910150717842], [-1.8441151221049232], [3.2944254226627123], [0.282153966267598], [0.5190055658899314], [-1.065363926733201], [-1.0131977599390027], [0.9928304827346506], [-0.03818054683214157], [-0.4471478891064855], [-0.4106990056906363], [-2.020489505495433], [-1.507782938314512], [0.19552134190827886], [0.3053784704368384], [-1.1546611830978692], [0.9003395844904448], [-0.48616121690256703], [-0.4231376650609985], [-0.6334525804627125], [0.2835011112591052], [-1.6217132068162714], [-0.2974842831018899]], [[0.9030653469778511]]]