[[[-1.3895823035514463], [2.6748808511587323], [-0.4681173449879342], [-1.49768855128879], [2.379584810632359], [0.3706237273057076], [1.527358000113585], [1.2312708347298167], [-0.2951907650309981], [-1.1936663768393798], [1.7339191040578947], [-0.5146546830189902], [-1.9447030403223313], [-3.1764746227316296], [1.4941806890239466], [0.3509439753561442], [0.46308288756207194], [-0.8360679940170834], [0.9879279956019595], [-0.7246961818858846], [-0.3426179989277673], [-0.18206923323619578], [0.31940187583183993], [0.3669598009871], [0.41533848262466877], [-0.49077843298638], [-3.516975292725167], [-2.248808299782386], [-0.5299403598424804], [1.4530106289990754], [1.2267903143173686], [-0.36466955865909617], [0.4174123224746445], [-0.15086469841047312], [-1.5675554537544425], [0.1057125348383534], [-1.0314237907052548], [0.10659322798874525], [0.4796902334554608], [0.17708385126790335], [0.15550931787947506], [-1.4594063978616518], [0.6655395605646941], [-1.829559542282138], [1.1196943819632772], [-0.6154197078229432], [1.2103632528857033], [0.28734700180141165], [1.1380380265936498], [0.12371586915582415], [-0.6378782845445471], [-1.1460652193088368], [1.0799953566242178], [0.5065242649330262], [-0.48090072085766017], [-1.252553872018402], [0.4063283098072096], [-0.3656770050240939], [0.4996506249550828], [0.5079705600692609], [-1.1325996374386667], [-0.1598684075867474], [1.2288231072144584], [1.5016169889423177]], [[-1.293865990878731], [-0.19135330848505736], [-1.7293265772418682], [-0.3410164235484109], [2.0168318719728298], [1.1836355704468906], [1.1403316579844243], [-0.7364583363638436], [1.5169996205851874], [1.099114954701176], [0.4997605670082577], [-0.1854901077979903], [-0.2675591195800135], [0.1537107271175363], [-0.9449932700855593], [1.005072046171582], [0.415635652817942], [-0.6962215042287834], [0.45276739238889213], [-1.5632858558450407], [-0.021199444605690305], [1.3349681141514584], [1.2168147603229948], [-0.999622337418622], [-1.0445330690178067], [-1.9039309895088365], [0.7910048994508176], [-0.3409655144180022], [-0.8464951179557654], [-0.06525686391163982], [1.2489835213844538], [0.29199534949330297], [0.44105611484934487], [-0.5781721157180304], [-0.4517188009452292], [1.2966069246528111], [0.5038378861777916], [-0.6254534903225304], [0.8470307263553588], [0.3977354561576832], [-0.2527049379872852], [-1.1214641064949233], [-0.5228471721146497], [-0.8906948056895289], [-0.8935573309881503], [0.5974693945709199], [-0.25988282889794206], [-0.508639647109218], [0.5240918464930765], [-0.7569203365551588], [-1.2193705770373742], [0.5491327588715242], [2.2482046597798484], [0.2377797912067532], [-0.1591191554198236], [-0.881645139680074], [-1.4176837074211723], [1.958291487950453], [-1.3972630882237596], [-0.15034440650818534], [-0.24513661921805194], [0.09660014619801253], [-1.0427759815443058], [1.7778813322256233]], [[-1.1126587909331265], [0.06295638380477055], [-0.3994661336211524], [0.7693379949741886], [0.9959570679927562], [-0.6732948211074431], [-0.6537596139768106], [-1.7503980952712364], [0.5683698399132482], [-0.30329556942304947], [0.201412272227584], [-0.867248474755941], [-1.721890248776769], [-1.0536878587529863], [1.1718644653869443], [0.05470930494944786], [1.695460551837581], [-0.17717480644828307], [-0.26596038190594434], [-3.0844751763483482], [-1.222062405153709], [0.9860766204678143], [-0.8213586721729754], [0.8717229606417849], [-0.33706056419118796], [1.013646215954045], [-0.7487669599631658], [0.20121354270566805], [-0.9062209866081784], [1.40729244719196], [-0.19337408506371712], [-1.310374554103916], [0.676888895201635], [-0.4115352399867242], [0.04907353418439336], [-0.5101787892363524], [-0.35780146860583467], [-0.48626105376600426], [-0.08986875067398213], [0.8759973654659147], [-1.5572114442456089], [-0.5666910258309381], [-1.8441151221049232], [3.294404285502154], [0.2820040687679327], [0.519019790928995], [-1.065363926733201], [-1.0131977599390027], [0.9929983554090801], [-0.037896482892224664], [-0.44711832734244455], [-0.4107376147499664], [-2.020489505495433], [-1.507782938314512], [0.19552134190827886], [0.3051791497920479], [-1.154661092333804], [0.9004001427841672], [-0.48616121690256703], [-0.4231376650609985], [-0.6334525804627125], [0.2833492920006035], [-1.6217132068162714], [-0.2975720791625759]], [[0.9025946514960743]]]