[[[-1.3895823035514463], [2.6739600951984546], [-0.4681173449879342], [-1.49768855128879], [2.3772758826971048], [0.37030051975084183], [1.5261912609194281], [1.2300953798654366], [-0.2949528139578802], [-1.1936663768393798], [1.7332231456278961], [-0.5146546830189902], [-1.9447030403223313], [-3.1764746227316296], [1.4929387447674145], [0.3506329917716923], [0.4623996758967611], [-0.8360679940170834], [0.9873700223997526], [-0.7246961818858846], [-0.3426179989277673], [-0.18198979077839134], [0.31880796883129237], [0.36359815546179397], [0.41507799401549667], [-0.49077843298638], [-3.516975292725167], [-2.248808299782386], [-0.5299403598424804], [1.4517852698103604], [1.2252982072287777], [-0.36466955865909617], [0.41680320686295386], [-0.1509627194405612], [-1.5675554537544425], [0.10625361722030358], [-1.0314237907052548], [0.10671077526158211], [0.47957122065340424], [0.17455457184406095], [0.15530950132423096], [-1.4594063978616518], [0.6649498545832458], [-1.829559542282138], [1.119147832151422], [-0.6154197078229432], [1.209163547427174], [0.28685303327954415], [1.1364702110288052], [0.12325885236946624], [-0.6378782845445471], [-1.1460652193088368], [1.0801008152312617], [0.5062955810498839], [-0.48090072085766017], [-1.252553872018402], [0.4059667183461386], [-0.3656770050240939], [0.49946546724705276], [0.5085676548741235], [-1.1325996374386667], [-0.15916281601303153], [1.227775511107868], [1.5009692172886093]], [[-1.293865990878731], [-0.19137318289904168], [-1.7293265772418682], [-0.3410120854390529], [2.015963754131555], [1.1837775943842226], [1.1401963643825017], [-0.7364583363638436], [1.51711830322228], [1.0987306008158009], [0.49974787953541394], [-0.1855548584697539], [-0.2675790476280992], [0.1538510442394183], [-0.9455140208258063], [1.0025493814321667], [0.4153584003435336], [-0.6962215042287834], [0.4525491843576222], [-1.5632858558450407], [-0.021199444605690305], [1.3344597410031018], [1.215941372951314], [-0.999622337418622], [-1.0445330690178067], [-1.9039309895088365], [0.790215547162953], [-0.3409655144180022], [-0.8464951179557654], [-0.06528516242333385], [1.2491794410745263], [0.2909752498097414], [0.4412817897124215], [-0.5781721157180304], [-0.4515869280235556], [1.2965570499373782], [0.5032379383852441], [-0.6254493295142143], [0.8470314114489315], [0.3970529855667712], [-0.2529568877496128], [-1.1214641064949233], [-0.5227800279997736], [-0.8906948056895289], [-0.8935573309881503], [0.5972695873947969], [-0.25988282889794206], [-0.5085284521082106], [0.5240918464930765], [-0.7567564468126896], [-1.2191044455675533], [0.5485543844498418], [2.248618671579956], [0.2377797912067532], [-0.16099254835596136], [-0.881645139680074], [-1.4176837074211723], [1.9578663476474814], [-1.3972630882237596], [-0.15034440650818534], [-0.24513661921805194], [0.09683224571964325], [-1.0427759815443058], [1.7772235145522566]], [[-1.1126587909331265], [0.06295638380477055], [-0.3995756726537182], [0.7683886160978556], [0.9952386454204685], [-0.6736955739384153], [-0.6537596139770349], [-1.7503980952712364], [0.5679078872554404], [-0.30329557123947637], [0.20141182293943474], [-0.8672501999369672], [-1.721890248776769], [-1.0536878587529863], [1.1718644653869443], [0.05465050304338524], [1.695403333409137], [-0.17739728168914998], [-0.2661300482563882], [-3.0844751763483482], [-1.222062405153709], [0.9859810442343202], [-0.8213586721729754], [0.8717475570874348], [-0.3370605601617568], [1.0137029680608238], [-0.7487669599631658], [0.2011743791229044], [-0.9062209866081784], [1.4066407758837796], [-0.19383907917722548], [-1.310374554103916], [0.6768766642919777], [-0.4117872733536286], [0.04887372232746432], [-0.5101998037981901], [-0.357796808442077], [-0.4862612226237238], [-0.08986875067419614], [0.875481171290311], [-1.5572114692067744], [-0.5666910446803765], [-1.8441151221049232], [3.294274239485242], [0.28204265811461204], [0.5189560996197232], [-1.065363926733201], [-1.0131977599390027], [0.9928400192679396], [-0.037657033689486266], [-0.4471679485478756], [-0.41079312628655995], [-2.020489505495433], [-1.507782938314512], [0.19552134190827886], [0.30525259469024135], [-1.1546609932877197], [0.900310379662099], [-0.48616121690256703], [-0.4231376650609985], [-0.6334525804627125], [0.283404819333549], [-1.6217132068162714], [-0.29755911787080536]], [[0.902847807440979]]]