[[[-1.3895823035514463], [2.672736567436793], [-0.4681173449879342], [-1.49768855128879], [2.376514145739416], [0.3697288660684832], [1.5266471818145706], [1.2295839015886174], [-0.29491403870248883], [-1.1936663768393798], [1.733685782454869], [-0.5146546830189902], [-1.9447030403223313], [-3.1764746227316296], [1.493177160367005], [0.3503525379793449], [0.4627720568895571], [-0.8360679940170834], [0.9855865803851318], [-0.7246961818858846], [-0.3426179989277673], [-0.18196670342043572], [0.3181403616056961], [0.3638393665029738], [0.41557757723390293], [-0.49077843298638], [-3.516975292725167], [-2.248808299782386], [-0.5299403598424804], [1.4506069365092475], [1.2246678414978753], [-0.36466955865909617], [0.4162200272751752], [-0.15096735682124168], [-1.5675554537544425], [0.10690387666870751], [-1.0314237907052548], [0.10629240759028048], [0.47953041069336466], [0.17455907096713127], [0.1550934188142913], [-1.4594063978616518], [0.6641528772852476], [-1.829559542282138], [1.1199057103492396], [-0.6154197078229432], [1.2083265479980423], [0.28674049455343487], [1.1375532614383692], [0.12327180587925675], [-0.6378782845445471], [-1.1460652193088368], [1.080126644836651], [0.5070257194300836], [-0.48090072085766017], [-1.252553872018402], [0.406715949996317], [-0.3656770050240939], [0.4992821427055875], [0.5090365518082873], [-1.1325996374386667], [-0.15905158803614258], [1.2280269449731729], [1.5021322280858047]], [[-1.293865990878731], [-0.19139908479438905], [-1.7293265772418682], [-0.34101164997524347], [2.0160998206187615], [1.1836070820815459], [1.140010890090469], [-0.7364583363638436], [1.517163084126078], [1.0989045905073498], [0.4997397990759915], [-0.18555038145859015], [-0.2675679540763778], [0.15358960508359146], [-0.9453982729396309], [1.0009826639104573], [0.415328105028249], [-0.6962215042287834], [0.45251995754894647], [-1.5632858558450407], [-0.021199444605690305], [1.3345319532927586], [1.2159385691326976], [-0.999622337418622], [-1.0445330690178067], [-1.9039309895088365], [0.790295820247219], [-0.3409655144180022], [-0.8464951179557654], [-0.06522888203805782], [1.2489788510562116], [0.2903268336735919], [0.44130290894716734], [-0.5781721157180304], [-0.4516560081877171], [1.2964084787616006], [0.5035022432359919], [-0.6254490037500928], [0.8470316953394167], [0.3970965149825896], [-0.25323870128610515], [-1.1214641064949233], [-0.5227113262767071], [-0.8906948056895289], [-0.8935573309881503], [0.5971968988568161], [-0.25988282889794206], [-0.5085109575566812], [0.5240918464930765], [-0.7567500368343097], [-1.2190909160915926], [0.5484721124544454], [2.2480791063961165], [0.2377797912067532], [-0.16075671801096889], [-0.881645139680074], [-1.4176837074211723], [1.9579969818585616], [-1.3972630882237596], [-0.15034440650818534], [-0.24513661921805194], [0.0966765096718271], [-1.0427759815443058], [1.777102873013698]], [[-1.1126587909331265], [0.06295638380477055], [-0.39955705095023086], [0.768589756840156], [0.9953863134698481], [-0.6738314023419727], [-0.6537596139770349], [-1.7503980952712364], [0.5679401974362703], [-0.3032955712887788], [0.20141177947025513], [-0.8672483991238229], [-1.721890248776769], [-1.0536878587529863], [1.1718644653869443], [0.05469801180057787], [1.6953425251307777], [-0.1775327903923904], [-0.26603712405574925], [-3.0844751763483482], [-1.222062405153709], [0.9860735185817431], [-0.8213586721729754], [0.8717532560856972], [-0.33706055997446244], [1.0135221033985133], [-0.7487669599631658], [0.20118683868645193], [-0.9062209866081784], [1.406658824634594], [-0.19412205811337196], [-1.310374554103916], [0.6768688018476104], [-0.4119455583715548], [0.048952275519696026], [-0.5102606276528687], [-0.35781912558105633], [-0.4862612439397188], [-0.08986875067419614], [0.8756063719324029], [-1.5572114710330265], [-0.5666910465209855], [-1.8441151221049232], [3.2942786313323], [0.28194037280661205], [0.5189740853362658], [-1.065363926733201], [-1.0131977599390027], [0.9929318219018743], [-0.037623816363804], [-0.4471438630357296], [-0.41071677327516437], [-2.020489505495433], [-1.507782938314512], [0.19552134190827886], [0.30511555951694325], [-1.1546609847114029], [0.9003611174658579], [-0.48616121690256703], [-0.4231376650609985], [-0.6334525804627125], [0.2832992335032263], [-1.6217132068162714], [-0.29761273820863565]], [[0.9025549725124757]]]