[[[-1.3895823035514463], [2.6695654073620716], [-0.4681173449879342], [-1.49768855128879], [2.370689974717245], [0.36860855311431623], [1.5244669702468754], [1.2265501166340873], [-0.29469354191889857], [-1.1936663768393798], [1.7319587359861983], [-0.5146546830189902], [-1.9447030403223313], [-3.1764746227316296], [1.4897508523205438], [0.34922882159932006], [0.4613497568871755], [-0.8360679940170834], [0.9842748410959677], [-0.7246961818858846], [-0.3426179989277673], [-0.18173241025440587], [0.3163419872210747], [0.356767260860068], [0.4153671470822384], [-0.49077843298638], [-3.516975292725167], [-2.248808299782386], [-0.5299403598424804], [1.4471560891878474], [1.2210162352010367], [-0.36466955865909617], [0.4144813127153449], [-0.151103402878031], [-1.5675554537544425], [0.10586800597177434], [-1.0314237907052548], [0.10849367791749871], [0.4791092550565862], [0.16926351184250094], [0.15496304447828468], [-1.4594063978616518], [0.6624604919344381], [-1.829559542282138], [1.118283394270345], [-0.6154197078229432], [1.2053224135135847], [0.28543440616615695], [1.1346043827207768], [0.12238990636437946], [-0.6378782845445471], [-1.1460652193088368], [1.0797927024542386], [0.5065371881204044], [-0.48090072085766017], [-1.252553872018402], [0.40558189428708197], [-0.3656770050240939], [0.4986550576296377], [0.5103309132344147], [-1.1325996374386667], [-0.15805340949565014], [1.2260161867478656], [1.500588640027622]], [[-1.293865990878731], [-0.19161359745414436], [-1.7293265772418682], [-0.34100991934462516], [2.014183512252468], [1.1839449847199686], [1.1397421382966286], [-0.7364583363638436], [1.5174472760901765], [1.098477540924133], [0.5002872318361536], [-0.1860259606749732], [-0.26758026714175404], [0.15369495569565086], [-0.9463160321038337], [0.995381360822131], [0.41534699757526333], [-0.6962215042287834], [0.4522840220069713], [-1.5632858558450407], [-0.021199444605690305], [1.3333453548369907], [1.214372557089001], [-0.999622337418622], [-1.0445330690178067], [-1.9039309895088365], [0.789154503084256], [-0.3409655144180022], [-0.8464951179557654], [-0.06531973149217252], [1.2490919200481794], [0.28920796402227883], [0.44120572382444373], [-0.5781721157180304], [-0.45135230232544765], [1.2962073342835065], [0.5015248445960007], [-0.6254479706634241], [0.8470429122630154], [0.39565992916217596], [-0.2544588394298529], [-1.1214641064949233], [-0.5230085891312921], [-0.8906948056895289], [-0.8935573309881503], [0.5965767207512083], [-0.25988282889794206], [-0.5082377795060626], [0.5240918464930765], [-0.7567460960025837], [-1.2187635566422859], [0.5477173627339648], [2.248199744991269], [0.2377797912067532], [-0.16443423460917125], [-0.881645139680074], [-1.4176837074211723], [1.9567901714657518], [-1.3972630882237596], [-0.15034440650818534], [-0.24513661921805194], [0.09727317830103117], [-1.0427759815443058], [1.7761972957063747]], [[-1.1126587909331265], [0.06295638380477055], [-0.3991410734129996], [0.7675597452781764], [0.9947454569494714], [-0.6739587169794106], [-0.6537596139770431], [-1.7503980952712364], [0.5668739595037104], [-0.30329557143143343], [0.2014115885904887], [-0.8671623173810051], [-1.721890248776769], [-1.0536878587529863], [1.1718644653869443], [0.05460674335583365], [1.6952531370408563], [-0.1781035982581756], [-0.2659544925694164], [-3.0844751763483482], [-1.222062405153709], [0.9859252510926879], [-0.8213586721729754], [0.8719142118824772], [-0.33706055960019665], [1.013608421379119], [-0.7487669599631658], [0.20112252465260025], [-0.9062209866081784], [1.4056767560914836], [-0.19526803340596344], [-1.310374554103916], [0.6768477252226668], [-0.41298445078200013], [0.048182542429220966], [-0.5103889828150613], [-0.35780992476747564], [-0.48626133774772173], [-0.08986875067420154], [0.8741656086412252], [-1.5572114759425382], [-0.5666910517374223], [-1.8441151221049232], [3.294074534260996], [0.28200041749101457], [0.51887540661244], [-1.065363926733201], [-1.0131977599390027], [0.992141925649108], [-0.037039832059649835], [-0.44723994933628564], [-0.4099833482123699], [-2.020489505495433], [-1.507782938314512], [0.19552134190827886], [0.30523160976721253], [-1.1546609613258179], [0.9002249747847906], [-0.48616121690256703], [-0.4231376650609985], [-0.6334525804627125], [0.283383877505137], [-1.6217132068162714], [-0.29759491188067505]], [[0.9029307386498953]]]