[[[-1.3895823035514463], [2.6758028676940575], [-0.4681173449879342], [-1.49768855128879], [2.3794632283719026], [0.37108433645308925], [1.5264828898033818], [1.2313201088955845], [-0.29514224376507087], [-1.1936663768393798], [1.7331990121383758], [-0.5146546830189902], [-1.9447030403223313], [-3.1764746227316296], [1.4934388530982579], [0.3510895690342878], [0.4624729660248701], [-0.8360679940170834], [0.9895698829095436], [-0.7246961818858846], [-0.3426179989277673], [-0.18204604792806328], [0.3197744393972335], [0.3651711239736489], [0.41475220695167053], [-0.49077843298638], [-3.516975292725167], [-2.248808299782386], [-0.5299403598424804], [1.4537586144016825], [1.226853739068913], [-0.36466955865909617], [0.4177311106295006], [-0.15088554799739223], [-1.5675554537544425], [0.10503644979596742], [-1.0314237907052548], [0.10717714035303137], [0.47969517219951097], [0.1755456026507369], [0.15575112159000057], [-1.4594063978616518], [0.6661169482070121], [-1.829559542282138], [1.1187239536691278], [-0.6154197078229432], [1.2107651948885967], [0.28726250550276766], [1.1363369198177684], [0.12350427298131171], [-0.6378782845445471], [-1.1460652193088368], [1.0800347515411426], [0.5056788046572273], [-0.48090072085766017], [-1.252553872018402], [0.4054173764646632], [-0.3656770050240939], [0.4997718993450494], [0.507741725799466], [-1.1325996374386667], [-0.15974008563438635], [1.2282062378819225], [1.500214539672867]], [[-1.293865990878731], [-0.19133410478512128], [-1.7293265772418682], [-0.3410150542748309], [2.01632698326881], [1.1838754091015866], [1.1404995246462892], [-0.7364583363638436], [1.5169929611237867], [1.0988184473506588], [0.4997975840140527], [-0.18553473750649466], [-0.26756438373625646], [0.15405254669679788], [-0.9452988405907796], [1.0056663634806258], [0.4155811669004284], [-0.6962215042287834], [0.4527151864672521], [-1.5632858558450407], [-0.021199444605690305], [1.3346691691003851], [1.216475827383102], [-0.999622337418622], [-1.0445330690178067], [-1.9039309895088365], [0.7906157595229955], [-0.3409655144180022], [-0.8464951179557654], [-0.06533816072949583], [1.2492852968301476], [0.292380653735439], [0.4411040776117519], [-0.5781721157180304], [-0.4515970953614288], [1.2967502036416663], [0.5032496040544526], [-0.6254520721720588], [0.8470308771674406], [0.3973870032886721], [-0.25251385616772604], [-1.1214641064949233], [-0.5228994826561691], [-0.8906948056895289], [-0.8935573309881503], [0.5974479318724059], [-0.25988282889794206], [-0.5086069274808604], [0.5240918464930765], [-0.756896855603777], [-1.2193230452632817], [0.5490065191282146], [2.2489831491579175], [0.2377797912067532], [-0.16022764511784038], [-0.881645139680074], [-1.4176837074211723], [1.9579647694559283], [-1.3972630882237596], [-0.15034440650818534], [-0.24513661921805194], [0.09686570309528389], [-1.0427759815443058], [1.7777851405436684]], [[-1.1126587909331265], [0.06295638380477055], [-0.3995532204023263], [0.7687927872454843], [0.995522292157017], [-0.673211502957525], [-0.65375961397698], [-1.7503980952712364], [0.568074752987409], [-0.3032955699137819], [0.20141215343686122], [-0.8672499843887804], [-1.721890248776769], [-1.0536878587529863], [1.1718644653869443], [0.05462676887885776], [1.6955110001109095], [-0.17711285851920197], [-0.2661250270449294], [-3.0844751763483482], [-1.222062405153709], [0.9859206560497235], [-0.8213586721729754], [0.8717115652518272], [-0.3370605630287733], [1.0138910041140332], [-0.7487669599631658], [0.20118547956424343], [-0.9062209866081784], [1.4069601302889092], [-0.19324165037175287], [-1.310374554103916], [0.6768973165877518], [-0.41145596592700395], [0.04888911055624142], [-0.5101099418534063], [-0.35777123190014265], [-0.48626109738149326], [-0.08986875067408248], [0.8756205095721986], [-1.5572114533863195], [-0.5666910317176634], [-1.8441151221049232], [3.294344007556668], [0.2821437617752115], [0.5189709875434052], [-1.065363926733201], [-1.0131977599390027], [0.9927925589068507], [-0.03783096025900551], [-0.44715924803101015], [-0.4108404399009029], [-2.020489505495433], [-1.507782938314512], [0.19552134190827886], [0.30537719985728873], [-1.1546610589643374], [0.900299819830854], [-0.48616121690256703], [-0.4231376650609985], [-0.6334525804627125], [0.28350051385299396], [-1.6217132068162714], [-0.29749718946171533]], [[0.9031004230869123]]]