[[[-1.3895823035514463], [2.6730174165910903], [-0.4681173449879342], [-1.49768855128879], [2.377942443773936], [0.36990093487409215], [1.5274462791165364], [1.2302563278736676], [-0.295052699744515], [-1.1936663768393798], [1.7341983918846775], [-0.5146546830189902], [-1.9447030403223313], [-3.1764746227316296], [1.4940870172111989], [0.35057264172584884], [0.4633070823354102], [-0.8360679940170834], [0.9856413202852982], [-0.7246961818858846], [-0.3426179989277673], [-0.18202841236937917], [0.3185052692023197], [0.36675504731187014], [0.41579771005158106], [-0.49077843298638], [-3.516975292725167], [-2.248808299782386], [-0.5299403598424804], [1.4511664990512478], [1.2255440806255098], [-0.36466955865909617], [0.41663923136759173], [-0.15090930551270987], [-1.5675554537544425], [0.10716875339479814], [-1.0314237907052548], [0.10598416544720395], [0.4796637730964572], [0.1763610248211764], [0.15509576434692207], [-1.4594063978616518], [0.6644002131012131], [-1.829559542282138], [1.1203506591176378], [-0.6154197078229432], [1.2089738628914177], [0.2870755061896643], [1.1388569082507811], [0.1235967481067438], [-0.6378782845445471], [-1.1460652193088368], [1.0800424365043522], [0.5073451815344265], [-0.48090072085766017], [-1.252553872018402], [0.4071010329941772], [-0.3656770050240939], [0.49928897154573176], [0.5085849635533776], [-1.1325996374386667], [-0.15945428445506735], [1.2287003066975541], [1.5027120552733344]], [[-1.293865990878731], [-0.19142897482511717], [-1.7293265772418682], [-0.34101325011754424], [2.016789281704354], [1.1834391631819523], [1.1399921555888428], [-0.7364583363638436], [1.5171121693341754], [1.0991591565488061], [0.4996619254126581], [-0.18544509282905972], [-0.26758064316918023], [0.15336175467002425], [-0.9449932444448602], [1.0027022918542234], [0.41540519034576], [-0.6962215042287834], [0.4526631633399713], [-1.5632858558450407], [-0.021199444605690305], [1.3349583270586152], [1.2165344859096352], [-0.999622337418622], [-1.0445330690178067], [-1.9039309895088365], [0.7908145072447796], [-0.3409655144180022], [-0.8464951179557654], [-0.06517844665114728], [1.2487403672467223], [0.29100890994742773], [0.4412008258076726], [-0.5781721157180304], [-0.4517685922648297], [1.2963910823210967], [0.5042358129727879], [-0.6254503899889958], [0.8470311828653851], [0.397655247521713], [-0.2531624414183798], [-1.1214641064949233], [-0.522704950362343], [-0.8906948056895289], [-0.8935573309881503], [0.5973423863126244], [-0.25988282889794206], [-0.5085675953298278], [0.5240918464930765], [-0.7568137978056058], [-1.2192046080109589], [0.5488259843821137], [2.247543730746644], [0.2377797912067532], [-0.15932509226562253], [-0.881645139680074], [-1.4176837074211723], [1.9583610330096044], [-1.3972630882237596], [-0.15034440650818534], [-0.24513661921805194], [0.096453583147802], [-1.0427759815443058], [1.777482822762134]], [[-1.1126587909331265], [0.06295638380477055], [-0.3994241616206954], [0.7691578572995554], [0.9958514422794391], [-0.6737255647892578], [-0.6537596139770233], [-1.7503980952712364], [0.5684091563562512], [-0.30329557088230263], [0.2014119632160007], [-0.8672518658549175], [-1.721890248776769], [-1.0536878587529863], [1.1718644653869443], [0.054757522951278066], [1.695349832047027], [-0.17742751379597194], [-0.26589169406076896], [-3.0844751763483482], [-1.222062405153709], [0.9861789419278267], [-0.8213586721729754], [0.8717180642731535], [-0.3370605608080596], [1.01340077978652], [-0.7487669599631658], [0.2012160935767662], [-0.9062209866081784], [1.407169069772279], [-0.19390834054428213], [-1.310374554103916], [0.6768711828212489], [-0.4118328691728979], [0.04912726775780568], [-0.5102636630044418], [-0.3578332546752324], [-0.48626116835439737], [-0.08986875067417249], [0.8761243512326125], [-1.557211463655887], [-0.5666910391090522], [-1.8441151221049232], [3.2943630922196228], [0.2818683038940851], [0.5190227866793351], [-1.065363926733201], [-1.0131977599390027], [0.9931362814476443], [-0.037723680857186824], [-0.44709160860601593], [-0.4107010847090964], [-2.020489505495433], [-1.507782938314512], [0.19552134190827886], [0.30500423334526566], [-1.1546610175651342], [0.9004417940150469], [-0.48616121690256703], [-0.4231376650609985], [-0.6334525804627125], [0.28321485894841364], [-1.6217132068162714], [-0.297647945180524]], [[0.9022381811068502]]]