[[[-1.3895823035514463], [2.6771326263936444], [-0.4681173449879342], [-1.49768855128879], [2.381946045170305], [0.3714913260170043], [1.5275747459904718], [1.2326043992589943], [-0.29549363624309194], [-1.1936663768393798], [1.7338925869744495], [-0.5146546830189902], [-1.9447030403223313], [-3.1764746227316296], [1.4945227640998895], [0.3513816956318832], [0.4631961691916174], [-0.8360679940170834], [0.990342733960843], [-0.7246961818858846], [-0.3426179989277673], [-0.18205831659056454], [0.3203699656871619], [0.3675658410813277], [0.4150040736949071], [-0.49077843298638], [-3.516975292725167], [-2.248808299782386], [-0.5299403598424804], [1.4552804090817621], [1.2283908209978154], [-0.36466955865909617], [0.4182020316425117], [-0.15084628916829285], [-1.5675554537544425], [0.10574917813232294], [-1.0314237907052548], [0.10798287007149442], [0.47974335308610494], [0.17892791716364875], [0.1561843020319809], [-1.4594063978616518], [0.6667246427837126], [-1.829559542282138], [1.1193647949860253], [-0.6154197078229432], [1.2122149625962206], [0.28782904589851327], [1.1375668072636476], [0.12393846812104707], [-0.6378782845445471], [-1.1460652193088368], [1.0799403705160375], [0.5056503890317547], [-0.48090072085766017], [-1.252553872018402], [0.40568439769187786], [-0.3656770050240939], [0.5001154337300727], [0.5073210265141995], [-1.1325996374386667], [-0.16037164048030106], [1.2293432745754975], [1.5008874694303351]], [[-1.293865990878731], [-0.19119212583596154], [-1.7293265772418682], [-0.34103141835692263], [2.016997794079554], [1.1839225431139695], [1.140815364525632], [-0.7364583363638436], [1.5167471468127733], [1.0991337402942203], [0.49995036544194854], [-0.18563219973497086], [-0.26747980520978076], [0.15423655457489444], [-0.945061648842148], [1.00771431241866], [0.4161214376296408], [-0.6962215042287834], [0.453054045208893], [-1.5632858558450407], [-0.021199444605690305], [1.335028987425926], [1.2172956424327632], [-0.999622337418622], [-1.0445330690178067], [-1.9039309895088365], [0.7915018975970084], [-0.3409655144180022], [-0.8464951179557654], [-0.0653943203486692], [1.2493765750684636], [0.2934635416743429], [0.4408885611769583], [-0.5781721157180304], [-0.45171610284387825], [1.296983977997727], [0.5037588661332978], [-0.6253999599439806], [0.8470301473469496], [0.39792650603021273], [-0.25220606937563267], [-1.1214641064949233], [-0.5231106705712918], [-0.8906948056895289], [-0.8935573309881503], [0.5977013289884592], [-0.25988282889794206], [-0.5087798644758547], [0.5240918464930765], [-0.7570325463102221], [-1.2198526352748806], [0.5496886498613138], [2.2490919113113814], [0.2377797912067532], [-0.1588162566382072], [-0.881645139680074], [-1.4176837074211723], [1.9582587362818409], [-1.3972630882237596], [-0.15034440650818534], [-0.24513661921805194], [0.09682976476880863], [-1.0427759815443058], [1.7785808238671736]], [[-1.1126587909331265], [0.06295638380477055], [-0.3995363197881708], [0.7696273313965055], [0.9961370014615963], [-0.6726713100980926], [-0.6537596139768106], [-1.7503980952712364], [0.568332770013709], [-0.3032955632884819], [0.2014135070415742], [-0.8672241902558366], [-1.721890248776769], [-1.0536878587529863], [1.1718644653869443], [0.0546502452125768], [1.6956551657505061], [-0.17681511461584148], [-0.2659882393975975], [-3.0844751763483482], [-1.222062405153709], [0.9859355954959768], [-0.8213586721729754], [0.8716649215808266], [-0.3370606216080327], [1.0140219841701303], [-0.7487669599631658], [0.2012283036341016], [-0.9062209866081784], [1.407723325520748], [-0.192579241103993], [-1.310374554103916], [0.6769290715172104], [-0.41109084946069074], [0.049006501839240706], [-0.5100889772658594], [-0.3577487592873614], [-0.4862606568925675], [-0.08986875067239435], [0.8756735165216621], [-1.557211340361029], [-0.566690986019752], [-1.8441151221049232], [3.2945082483652732], [0.28220657182752223], [0.5190342026733592], [-1.065363926733201], [-1.0131977599390027], [0.992819135123999], [-0.03845730113638866], [-0.447203147107045], [-0.410595989155931], [-2.020489505495433], [-1.507782938314512], [0.19552134190827886], [0.3054373735574477], [-1.154661443121837], [0.9003598815439312], [-0.48616121690256703], [-0.4231376650609985], [-0.6334525804627125], [0.28354491246687996], [-1.6217132068162714], [-0.29744632290100537]], [[0.9031708406249433]]]