[[[-1.3895823035514463], [2.670207755697743], [-0.4681173449879342], [-1.49768855128879], [2.3720580574910404], [0.3687481822808116], [1.525064916542535], [1.2271952948364868], [-0.29474063347142887], [-1.1936663768393798], [1.7324983478993594], [-0.5146546830189902], [-1.9447030403223313], [-3.1764746227316296], [1.4906634028681998], [0.34940786776224264], [0.461863124292549], [-0.8360679940170834], [0.9841433418114173], [-0.7246961818858846], [-0.3426179989277673], [-0.18179603395244176], [0.3164584245477721], [0.35765872883574296], [0.41550192235069566], [-0.49077843298638], [-3.516975292725167], [-2.248808299782386], [-0.5299403598424804], [1.4477996769559374], [1.2217414552826733], [-0.36466955865909617], [0.41470773504255753], [-0.15107216976887922], [-1.5675554537544425], [0.10616921308738692], [-1.0314237907052548], [0.10772614761460217], [0.4792928623065046], [0.17054372350771393], [0.15493369177249036], [-1.4594063978616518], [0.662748688700605], [-1.829559542282138], [1.1189818722896638], [-0.6154197078229432], [1.2059276474807228], [0.2857259360018409], [1.135528097494158], [0.1226278057615256], [-0.6378782845445471], [-1.1460652193088368], [1.0800127241368525], [0.5068174112482046], [-0.48090072085766017], [-1.252553872018402], [0.4061000236338659], [-0.3656770050240939], [0.49882832725719045], [0.5101772441128893], [-1.1325996374386667], [-0.15836534247939466], [1.2266322214165892], [1.501328486423795]], [[-1.293865990878731], [-0.19152182640728832], [-1.7293265772418682], [-0.34101005086686004], [2.0146267719751276], [1.1838769005894711], [1.139791245844574], [-0.7364583363638436], [1.517357665902391], [1.0985454820655065], [0.5000914325229752], [-0.18588895370504066], [-0.267560545330087], [0.15369023951423835], [-0.9460541652243715], [0.9960474321315609], [0.41530307877294614], [-0.6962215042287834], [0.4523602240278001], [-1.5632858558450407], [-0.021199444605690305], [1.3336712822297536], [1.214774399150201], [-0.999622337418622], [-1.0445330690178067], [-1.9039309895088365], [0.789407776335255], [-0.3409655144180022], [-0.8464951179557654], [-0.0652954213284785], [1.249081832340614], [0.28946128366287194], [0.4412294126264158], [-0.5781721157180304], [-0.45143949598725297], [1.2962553211345638], [0.5021668457994597], [-0.6254480439657817], [0.8470382810053587], [0.39606151901295217], [-0.25405909489102174], [-1.1214641064949233], [-0.5229506961516532], [-0.8906948056895289], [-0.8935573309881503], [0.5967673637514818], [-0.25988282889794206], [-0.5083297337732177], [0.5240918464930765], [-0.7567231056722518], [-1.2187769269251176], [0.5478975137499338], [2.248245491895104], [0.2377797912067532], [-0.16371558563872846], [-0.881645139680074], [-1.4176837074211723], [1.9570792989042824], [-1.3972630882237596], [-0.15034440650818534], [-0.24513661921805194], [0.09707141063322858], [-1.0427759815443058], [1.7763821296005247]], [[-1.1126587909331265], [0.06295638380477055], [-0.3993326255628144], [0.767735965350353], [0.9948275671023545], [-0.6738573408382362], [-0.6537596139770431], [-1.7503980952712364], [0.5672023259715664], [-0.30329557142716174], [0.20141160559062216], [-0.8672033023449975], [-1.721890248776769], [-1.0536878587529863], [1.1718644653869443], [0.05461722847493049], [1.695275754367433], [-0.1779150595401633], [-0.2660095536262912], [-3.0844751763483482], [-1.222062405153709], [0.9859402737715959], [-0.8213586721729754], [0.871854205555308], [-0.3370605596009594], [1.0136142559465315], [-0.7487669599631658], [0.20113272523314724], [-0.9062209866081784], [1.4059439093633699], [-0.19488958293984113], [-1.310374554103916], [0.6768526061315197], [-0.41265196865162473], [0.04843785762892517], [-0.5103367491787628], [-0.3578091387697641], [-0.4862613252224915], [-0.08986875067420151], [0.8745321887398398], [-1.5572114757103959], [-0.5666910513487748], [-1.8441151221049232], [3.294109842293722], [0.28200157388162106], [0.5188905183155105], [-1.065363926733201], [-1.0131977599390027], [0.9924357836389516], [-0.037231716226215336], [-0.447212017430204], [-0.4101395533016903], [-2.020489505495433], [-1.507782938314512], [0.19552134190827886], [0.30522690560501936], [-1.154660963130166], [0.9002426098658052], [-0.48616121690256703], [-0.4231376650609985], [-0.6334525804627125], [0.28338131070044154], [-1.6217132068162714], [-0.2975915746627202]], [[0.902901844832412]]]