[[[-1.3895823035514463], [2.6743553944356697], [-0.4681173449879342], [-1.49768855128879], [2.376511287356304], [0.37047459073538586], [1.5253219434522265], [1.2297817262985047], [-0.2948915868314402], [-1.1936663768393798], [1.7325292833825299], [-0.5146546830189902], [-1.9447030403223313], [-3.1764746227316296], [1.4920203934710778], [0.3505694556069376], [0.4617915604060061], [-0.8360679940170834], [0.9883657178485252], [-0.7246961818858846], [-0.3426179989277673], [-0.18194236633100783], [0.31878464516710475], [0.3607288654472194], [0.4146267215158718], [-0.49077843298638], [-3.516975292725167], [-2.248808299782386], [-0.5299403598424804], [1.45195095667588], [1.2249081341941717], [-0.36466955865909617], [0.4167615757486068], [-0.1509699509551981], [-1.5675554537544425], [0.10605793516946276], [-1.0314237907052548], [0.10746901366482393], [0.47954409656284835], [0.17267624813368787], [0.15542498722906523], [-1.4594063978616518], [0.6651494537244754], [-1.829559542282138], [1.1183416022170412], [-0.6154197078229432], [1.209082200009705], [0.286603017554736], [1.1348568952777731], [0.12296037232606491], [-0.6378782845445471], [-1.1460652193088368], [1.0801588033553389], [0.5056278051892581], [-0.48090072085766017], [-1.252553872018402], [0.40519902042370926], [-0.3656770050240939], [0.49953808555192947], [0.5086164722948512], [-1.1325996374386667], [-0.159017546195848], [1.22711380403539], [1.499853865897165]], [[-1.293865990878731], [-0.19136015014894495], [-1.7293265772418682], [-0.341011294757648], [2.015372811380419], [1.1839817708099925], [1.1402724831438298], [-0.7364583363638436], [1.5171608282986708], [1.0984764937537148], [0.4998283036345845], [-0.18563689244886822], [-0.2675638008378168], [0.15413005143718683], [-0.9458333895964922], [1.0019643122624984], [0.4153134492181393], [-0.6962215042287834], [0.4524969216972084], [-1.5632858558450407], [-0.021199444605690305], [1.334112337028529], [1.2155139938976844], [-0.999622337418622], [-1.0445330690178067], [-1.9039309895088365], [0.7897884675628976], [-0.3409655144180022], [-0.8464951179557654], [-0.0653581808361441], [1.249446650871721], [0.29097447812006016], [0.44128314533919405], [-0.5781721157180304], [-0.45147684457522436], [1.2966558102662562], [0.50251893468414], [-0.6254487297610092], [0.8470320848861881], [0.39663625141673997], [-0.2529576085735063], [-1.1214641064949233], [-0.5228600080667253], [-0.8906948056895289], [-0.8935573309881503], [0.5972091476301418], [-0.25988282889794206], [-0.5084925029013937], [0.5240918464930765], [-0.7567358168814392], [-1.2190487115991093], [0.5483521334808618], [2.24922562007682], [0.2377797912067532], [-0.1622894378861423], [-0.881645139680074], [-1.4176837074211723], [1.9575081090778268], [-1.3972630882237596], [-0.15034440650818534], [-0.24513661921805194], [0.0970563962639299], [-1.0427759815443058], [1.7770275798262594]], [[-1.1126587909331265], [0.06295638380477055], [-0.39966537252257106], [0.7679119345618036], [0.9948302391348011], [-0.6735788080989733], [-0.6537596139770379], [-1.7503980952712364], [0.5675367804796544], [-0.30329557132993595], [0.20141174139277981], [-0.8672459184435714], [-1.721890248776769], [-1.0536878587529863], [1.1718644653869443], [0.05458812827262706], [1.695423809421658], [-0.1774355287467395], [-0.26626900910322565], [-3.0844751763483482], [-1.222062405153709], [0.9858688881353066], [-0.8213586721729754], [0.8717604279455146], [-0.33706055983001365], [1.0138654146819082], [-0.7487669599631658], [0.20114626004857056], [-0.9062209866081784], [1.406325479938667], [-0.19391473175184942], [-1.310374554103916], [0.6768760887581763], [-0.41184898203972486], [0.048707489883332615], [-0.5101751796715674], [-0.3577777628290054], [-0.48626125850833735], [-0.08986875067419793], [0.8750730247115784], [-1.5572114724192778], [-0.5666910476287135], [-1.8441151221049232], [3.294212683287508], [0.28213781770561647], [0.5189140374096068], [-1.065363926733201], [-1.0131977599390027], [0.9926213096372847], [-0.03758715434448462], [-0.44721464934349064], [-0.41076031985421296], [-2.020489505495433], [-1.507782938314512], [0.19552134190827886], [0.3053897110111263], [-1.1546609793536158], [0.9002322762405491], [-0.48616121690256703], [-0.4231376650609985], [-0.6334525804627125], [0.28350986167519726], [-1.6217132068162714], [-0.29751376850914046]], [[0.9031715923604915]]]