[[[-1.3895823035514463], [2.674445858296563], [-0.4681173449879342], [-1.49768855128879], [2.3778935812075073], [0.3705474789737475], [1.526244783621231], [1.23042819248663], [-0.2950168634590277], [-1.1936663768393798], [1.733218426429579], [-0.5146546830189902], [-1.9447030403223313], [-3.1764746227316296], [1.4931140745018843], [0.35078391843533235], [0.46242612690832097], [-0.8360679940170834], [0.9879675155797883], [-0.7246961818858846], [-0.3426179989277673], [-0.18200642729443997], [0.3191048544501261], [0.36415340092139575], [0.4149664556880495], [-0.49077843298638], [-3.516975292725167], [-2.248808299782386], [-0.5299403598424804], [1.452319093042868], [1.2257247452377253], [-0.36466955865909617], [0.41708744632719236], [-0.15092927396726113], [-1.5675554537544425], [0.10611267072020394], [-1.0314237907052548], [0.10673419461366901], [0.4796291774153116], [0.17469015579803704], [0.15540161193866134], [-1.4594063978616518], [0.6652547040695852], [-1.829559542282138], [1.1190299254382023], [-0.6154197078229432], [1.2095927559809443], [0.2869676893400958], [1.1364498836839227], [0.12332178248471766], [-0.6378782845445471], [-1.1460652193088368], [1.0800903135806759], [0.5061452163901426], [-0.48090072085766017], [-1.252553872018402], [0.40582485483900255], [-0.3656770050240939], [0.4995410462279315], [0.5082849667091408], [-1.1325996374386667], [-0.15936016872364436], [1.227864778478985], [1.500762243256559]], [[-1.293865990878731], [-0.19137117746345175], [-1.7293265772418682], [-0.3410125967270636], [2.0160950463177922], [1.1837806687636763], [1.140246042183025], [-0.7364583363638436], [1.5171036948775964], [1.0987477848427092], [0.499715168305778], [-0.18551575057825567], [-0.26758758763378626], [0.1538853628010575], [-0.9454509299856567], [1.003504843137691], [0.4153735220364417], [-0.6962215042287834], [0.4525949029790349], [-1.5632858558450407], [-0.021199444605690305], [1.334555753382135], [1.2160875497659753], [-0.999622337418622], [-1.0445330690178067], [-1.9039309895088365], [0.7903011734077748], [-0.3409655144180022], [-0.8464951179557654], [-0.06529972769946596], [1.2491866017932702], [0.29134298197710806], [0.44125026868767897], [-0.5781721157180304], [-0.4516024226504338], [1.2966066938871381], [0.5033176778812456], [-0.6254497941232787], [0.8470312903232827], [0.397182930787712], [-0.2528568390080926], [-1.1214641064949233], [-0.5227901537244194], [-0.8906948056895289], [-0.8935573309881503], [0.59733123168261], [-0.25988282889794206], [-0.5085437373634789], [0.5240918464930765], [-0.7567694246162677], [-1.2191689950163807], [0.5486637479014559], [2.2486746482183326], [0.2377797912067532], [-0.1607582028899467], [-0.881645139680074], [-1.4176837074211723], [1.9579228633205845], [-1.3972630882237596], [-0.15034440650818534], [-0.24513661921805194], [0.09681668134829187], [-1.0427759815443058], [1.777356828055417]], [[-1.1126587909331265], [0.06295638380477055], [-0.3995590394318044], [0.7684578754047644], [0.9952676149450052], [-0.6735822268381225], [-0.6537596139770233], [-1.7503980952712364], [0.5679936441759065], [-0.3032955710868631], [0.20141189112200195], [-0.8672511438566638], [-1.721890248776769], [-1.0536878587529863], [1.1718644653869443], [0.05465385925739397], [1.6954227103909625], [-0.1773374788910568], [-0.26614865875254357], [-3.0844751763483482], [-1.222062405153709], [0.9859838788984249], [-0.8213586721729754], [0.8717232822094824], [-0.337060560375533], [1.0137201009620642], [-0.7487669599631658], [0.20117998106094231], [-0.9062209866081784], [1.4067275442898577], [-0.19371522458871013], [-1.310374554103916], [0.6768805435362552], [-0.41171935823560546], [0.048897442625250545], [-0.5101853669966548], [-0.3577942513362355], [-0.48626119512964794], [-0.08986875067418933], [0.8755757416076116], [-1.557211466651954], [-0.5666910420025515], [-1.8441151221049232], [3.29429679127689], [0.2820510075407858], [0.5189647063736866], [-1.065363926733201], [-1.0131977599390027], [0.9928764255851181], [-0.037681752219238175], [-0.4471790361977013], [-0.41082418556535366], [-2.020489505495433], [-1.507782938314512], [0.19552134190827886], [0.30526004535027446], [-1.1546610040943253], [0.9003186010953825], [-0.48616121690256703], [-0.4231376650609985], [-0.6334525804627125], [0.2834107266673486], [-1.6217132068162714], [-0.29755285178271906]], [[0.9028519422944196]]]