[[[-1.3895823035514463], [2.677627618711281], [-0.4681173449879342], [-1.49768855128879], [2.3825813239238585], [0.37172975548279397], [1.5277571278276252], [1.232937633184279], [-0.2956343937195903], [-1.1936663768393798], [1.7340817711868306], [-0.5146546830189902], [-1.9447030403223313], [-3.1764746227316296], [1.4948397615019702], [0.35150236236539867], [0.46339040191707165], [-0.8360679940170834], [0.9906213927981325], [-0.7246961818858846], [-0.3426179989277673], [-0.18194275186129963], [0.320521772680247], [0.367946864077149], [0.4149795502797767], [-0.49077843298638], [-3.516975292725167], [-2.248808299782386], [-0.5299403598424804], [1.4557091622321798], [1.2287904585476572], [-0.36466955865909617], [0.4182923358189502], [-0.15084911481345054], [-1.5675554537544425], [0.10589428490582058], [-1.0314237907052548], [0.10844109795049384], [0.4797570689066207], [0.17971960634253878], [0.15637364154458405], [-1.4594063978616518], [0.6668276965399252], [-1.829559542282138], [1.1195781944540908], [-0.6154197078229432], [1.2125597906005936], [0.2879676359814379], [1.137724802966817], [0.12403657783903674], [-0.6378782845445471], [-1.1460652193088368], [1.0800286384591045], [0.5055994830742356], [-0.48090072085766017], [-1.252553872018402], [0.40574818396825774], [-0.3656770050240939], [0.5002661008163448], [0.507200833453185], [-1.1325996374386667], [-0.16049927132317485], [1.2295680877485635], [1.5010592985764206]], [[-1.293865990878731], [-0.1911525596466657], [-1.7293265772418682], [-0.34104485689215064], [2.017196136101003], [1.1839074546779398], [1.1409027348196639], [-0.7364583363638436], [1.5167929011189996], [1.0991644138816756], [0.49989361370840146], [-0.18557983361720976], [-0.2674326051846505], [0.15437394126479773], [-0.9450514153878425], [1.0081451064270475], [0.41624164658039536], [-0.6962215042287834], [0.45309112356308345], [-1.5632858558450407], [-0.021199444605690305], [1.3351114336445764], [1.2174226015318055], [-0.999622337418622], [-1.0445330690178067], [-1.9039309895088365], [0.7916275329106809], [-0.3409655144180022], [-0.8464951179557654], [-0.06539511764686719], [1.249449749207349], [0.29354863561616923], [0.44086297359127624], [-0.5781721157180304], [-0.451732799222995], [1.297095173003357], [0.5038388194975651], [-0.6253923360718], [0.8470298095993665], [0.398051507647776], [-0.2521461476718648], [-1.1214641064949233], [-0.5231221016364662], [-0.8906948056895289], [-0.8935573309881503], [0.5977498362245852], [-0.25988282889794206], [-0.5088265410100331], [0.5240918464930765], [-0.7570485857750001], [-1.2200469720777625], [0.5498048219243271], [2.2492340106627213], [0.2377797912067532], [-0.15872191428557025], [-0.881645139680074], [-1.4176837074211723], [1.9583662554032548], [-1.3972630882237596], [-0.15034440650818534], [-0.24513661921805194], [0.09684873610786285], [-1.0427759815443058], [1.778738902869404]], [[-1.1126587909331265], [0.06295638380477055], [-0.39952098332920866], [0.769527969284281], [0.9961755468820124], [-0.6726857676061939], [-0.6537596139768106], [-1.7503980952712364], [0.5684294404537922], [-0.30329555808742176], [0.20141457512957928], [-0.867189469610124], [-1.721890248776769], [-1.0536878587529863], [1.1718644653869443], [0.05467390147310627], [1.6957032201826996], [-0.17675036439988492], [-0.26606921603033556], [-3.0844751763483482], [-1.222062405153709], [0.9859693238155606], [-0.8213586721729754], [0.8716991874285336], [-0.33706068900917235], [1.0140311759345728], [-0.7487669599631658], [0.20124891429523492], [-0.9062209866081784], [1.4077634133532038], [-0.19248153768110224], [-1.310374554103916], [0.6769390853504283], [-0.41100421841396256], [0.04907244526283113], [-0.5100919206103848], [-0.3577451360203002], [-0.4862603000671383], [-0.08986875067239435], [0.8756919720229821], [-1.557211250451934], [-0.5666909531861218], [-1.8441151221049232], [3.2945835153843603], [0.28220736211604786], [0.5190677275593562], [-1.065363926733201], [-1.0131977599390027], [0.9928663609967359], [-0.03855721698250608], [-0.4472876873991278], [-0.4105493770959358], [-2.020489505495433], [-1.507782938314512], [0.19552134190827886], [0.30542701940369926], [-1.1546617628202536], [0.900401522429863], [-0.48616121690256703], [-0.4231376650609985], [-0.6334525804627125], [0.2835358306731262], [-1.6217132068162714], [-0.2974402296282583]], [[0.9031004017658915]]]