[[[-1.3895823035514463], [2.672021926502456], [-0.4681173449879342], [-1.49768855128879], [2.374514498340241], [0.3693665367338691], [1.5257525919361217], [1.228526822909575], [-0.2948022652751967], [-1.1936663768393798], [1.7330318649121068], [-0.5146546830189902], [-1.9447030403223313], [-3.1764746227316296], [1.49182216032805], [0.34991506628744884], [0.46223026454545413], [-0.8360679940170834], [0.9853315715943297], [-0.7246961818858846], [-0.3426179989277673], [-0.18186699126926964], [0.31732049888885533], [0.3601038746354181], [0.4154268991641287], [-0.49077843298638], [-3.516975292725167], [-2.248808299782386], [-0.5299403598424804], [1.4496259212914893], [1.2233450086039503], [-0.36466955865909617], [0.41546546716162935], [-0.15099587478785145], [-1.5675554537544425], [0.10699396768427429], [-1.0314237907052548], [0.10724654277185454], [0.47943872492755324], [0.17236322178593552], [0.1550796635424259], [-1.4594063978616518], [0.6636952054035271], [-1.829559542282138], [1.119351295251316], [-0.6154197078229432], [1.2074135130981356], [0.2862628674101077], [1.1361208800588387], [0.12293802858979254], [-0.6378782845445471], [-1.1460652193088368], [1.080203450172126], [0.50668607622129], [-0.48090072085766017], [-1.252553872018402], [0.4062726892506853], [-0.3656770050240939], [0.49915426864643275], [0.509743877055171], [-1.1325996374386667], [-0.15870941002011002], [1.2273432128655737], [1.5015540516672523]], [[-1.293865990878731], [-0.19140462292854687], [-1.7293265772418682], [-0.3410105430167693], [2.0152264324007354], [1.183838841817567], [1.1400581637691534], [-0.7364583363638436], [1.5172046549650948], [1.0986288296537778], [0.49997255485299075], [-0.18576858699366908], [-0.2675493246972332], [0.1538021526155223], [-0.9458311043803628], [0.9982419938096545], [0.4153440765130091], [-0.6962215042287834], [0.45239460736332454], [-1.5632858558450407], [-0.021199444605690305], [1.3339848447222775], [1.2152972890781235], [-0.999622337418622], [-1.0445330690178067], [-1.9039309895088365], [0.7897793441561634], [-0.3409655144180022], [-0.8464951179557654], [-0.0653106946151828], [1.249196815975523], [0.29003308109527604], [0.44125300969852993], [-0.5781721157180304], [-0.4515131359152966], [1.2964339888670555], [0.5026822733896533], [-0.6254482999558213], [0.8470333613184443], [0.3964477567994834], [-0.25347216738009454], [-1.1214641064949233], [-0.5228587738024184], [-0.8906948056895289], [-0.8935573309881503], [0.5969918942513134], [-0.25988282889794206], [-0.5084355289545792], [0.5240918464930765], [-0.7567232603592224], [-1.2189351126924648], [0.5481600148539927], [2.248559057677092], [0.2377797912067532], [-0.1625939961869625], [-0.881645139680074], [-1.4176837074211723], [1.9574579631859157], [-1.3972630882237596], [-0.15034440650818534], [-0.24513661921805194], [0.09698565793209718], [-1.0427759815443058], [1.7767159721877614]], [[-1.1126587909331265], [0.06295638380477055], [-0.3996270012423871], [0.7680841152519184], [0.9950324817797207], [-0.6738545852380224], [-0.6537596139770426], [-1.7503980952712364], [0.5674765017508206], [-0.30329557139418395], [0.20141166675374234], [-0.8672343714882578], [-1.721890248776769], [-1.0536878587529863], [1.1718644653869443], [0.05461062001665744], [1.695350789181005], [-0.17765470266264907], [-0.2661000332855656], [-3.0844751763483482], [-1.222062405153709], [0.9859190153439084], [-0.8213586721729754], [0.8717812301534444], [-0.33706055965204124], [1.0137237933010317], [-0.7487669599631658], [0.2011433415191998], [-0.9062209866081784], [1.4062287022761737], [-0.19436447818531674], [-1.310374554103916], [0.6768644358018845], [-0.4121948616918743], [0.04869237171208543], [-0.5102471078599075], [-0.3577956471992008], [-0.48626129277548796], [-0.08986875067420076], [0.8749215268395337], [-1.5572114746503514], [-0.5666910499760313], [-1.8441151221049232], [3.294172863880793], [0.2820601836647552], [0.5189088038690024], [-1.065363926733201], [-1.0131977599390027], [0.9925864003137949], [-0.03746312549429627], [-0.44721809339381413], [-0.4104900219814653], [-2.020489505495433], [-1.507782938314512], [0.19552134190827886], [0.3052931805474243], [-1.1546609694963867], [0.9002479639942255], [-0.48616121690256703], [-0.4231376650609985], [-0.6334525804627125], [0.28343455216481644], [-1.6217132068162714], [-0.29755763656259454]], [[0.9029905910362258]]]