[[[-1.3895823035514463], [2.6714207182842786], [-0.4681173449879342], [-1.49768855128879], [2.3735701389730486], [0.3691434818466508], [1.525457752566541], [1.228031509569548], [-0.29476189410290915], [-1.1936663768393798], [1.7327948805826212], [-0.5146546830189902], [-1.9447030403223313], [-3.1764746227316296], [1.4913266043132294], [0.349717670050425], [0.4620400544725361], [-0.8360679940170834], [0.9849676766535654], [-0.7246961818858846], [-0.3426179989277673], [-0.18185766008736307], [0.31698341994413604], [0.3589536061818452], [0.4154374580796914], [-0.49077843298638], [-3.516975292725167], [-2.248808299782386], [-0.5299403598424804], [1.4489835804834428], [1.222733615779381], [-0.36466955865909617], [0.41516446920342776], [-0.15102796627377577], [-1.5675554537544425], [0.10692857440402177], [-1.0314237907052548], [0.10733687869606602], [0.47937906485449233], [0.17155854714303506], [0.15503487109788638], [-1.4594063978616518], [0.6633915922515891], [-1.829559542282138], [1.1191870328566726], [-0.6154197078229432], [1.206883488347718], [0.2860531869673507], [1.1357766343714306], [0.12275788084789954], [-0.6378782845445471], [-1.1460652193088368], [1.0801458974738696], [0.5066855047045604], [-0.48090072085766017], [-1.252553872018402], [0.40617465163035904], [-0.3656770050240939], [0.49904102757260627], [0.5099748654746529], [-1.1325996374386667], [-0.15852927829184185], [1.2270722424722975], [1.501409796322381]], [[-1.293865990878731], [-0.1914535213327382], [-1.7293265772418682], [-0.3410103219861717], [2.014935084805527], [1.1838878167589937], [1.139981555581335], [-0.7364583363638436], [1.517271685529867], [1.0985630322724271], [0.5000317705161071], [-0.1858242054339571], [-0.26755198149039694], [0.15380092566376824], [-0.9459481287604204], [0.9972813478337158], [0.41534188765188107], [-0.6962215042287834], [0.4523766171171278], [-1.5632858558450407], [-0.021199444605690305], [1.3338207849774903], [1.215059134211918], [-0.999622337418622], [-1.0445330690178067], [-1.9039309895088365], [0.7896061563386122], [-0.3409655144180022], [-0.8464951179557654], [-0.06532698773175517], [1.2491888195590144], [0.28982980074949904], [0.4412387525157217], [-0.5781721157180304], [-0.45146453605814046], [1.2963843530141808], [0.5024250585444031], [-0.6254481640229872], [0.8470348397647729], [0.3962558838491223], [-0.253659339106984], [-1.1214641064949233], [-0.5229082753159996], [-0.8906948056895289], [-0.8935573309881503], [0.5968952864066109], [-0.25988282889794206], [-0.5083941009434384], [0.5240918464930765], [-0.756714010420573], [-1.2188508593942067], [0.5480525062362498], [2.248529051135906], [0.2377797912067532], [-0.16308772878969818], [-0.881645139680074], [-1.4176837074211723], [1.957269082052838], [-1.3972630882237596], [-0.15034440650818534], [-0.24513661921805194], [0.09704622835633984], [-1.0427759815443058], [1.7765825758946587]], [[-1.1126587909331265], [0.06295638380477055], [-0.3995223807728181], [0.7678869092596725], [0.9949417228295914], [-0.6738575490948148], [-0.653759613977043], [-1.7503980952712364], [0.5673439056155779], [-0.30329557141465957], [0.2014116310794877], [-0.86721877224673], [-1.721890248776769], [-1.0536878587529863], [1.1718644653869443], [0.05460380442492276], [1.695328187576319], [-0.17774272796282395], [-0.26607695262485487], [-3.0844751763483482], [-1.222062405153709], [0.9859102583856458], [-0.8213586721729754], [0.8718148741974059], [-0.3370605596297504], [1.0137100473343497], [-0.7487669599631658], [0.20113531092947043], [-0.9062209866081784], [1.4060785308902717], [-0.19454139926660963], [-1.310374554103916], [0.6768599658800216], [-0.4123639556122926], [0.04857415822652368], [-0.5102738351555576], [-0.3577975346745934], [-0.4862613087983359], [-0.08986875067420139], [0.8747227352291819], [-1.5572114752326112], [-0.56669105073888], [-1.8441151221049232], [3.2941424970438278], [0.28205416754010937], [0.5188964881772157], [-1.065363926733201], [-1.0131977599390027], [0.9925034691483833], [-0.037372351353044946], [-0.4472092712048458], [-0.4103420094301187], [-2.020489505495433], [-1.507782938314512], [0.19552134190827886], [0.3052905249822195], [-1.1546609661111567], [0.9002348783563888], [-0.48616121690256703], [-0.4231376650609985], [-0.6334525804627125], [0.28343175649247127], [-1.6217132068162714], [-0.2975629799621595]], [[0.9030031809179623]]]