[[[-1.3895823035514463], [2.6704642624144963], [-0.4681173449879342], [-1.49768855128879], [2.3706622256333847], [0.3690640913073297], [1.523666416373391], [1.2266813608054692], [-0.29468740043936753], [-1.1936663768393798], [1.7311875356136004], [-0.5146546830189902], [-1.9447030403223313], [-3.1764746227316296], [1.4890161485778999], [0.3493924428898316], [0.4606988324781244], [-0.8360679940170834], [0.9860536709145188], [-0.7246961818858846], [-0.3426179989277673], [-0.18170956934359223], [0.3168635129292053], [0.3552056490677435], [0.4147945212636016], [-0.49077843298638], [-3.516975292725167], [-2.248808299782386], [-0.5299403598424804], [1.4479824361441984], [1.22122209460912], [-0.36466955865909617], [0.4148756898766048], [-0.15110898405244433], [-1.5675554537544425], [0.10492378250653506], [-1.0314237907052548], [0.1092419872204477], [0.47905668700177967], [0.1680355754005452], [0.15511347360195993], [-1.4594063978616518], [0.6631205275198633], [-1.829559542282138], [1.1172045471212229], [-0.6154197078229432], [1.2058088205985038], [0.2853696877986877], [1.1329461151741773], [0.12218874069268303], [-0.6378782845445471], [-1.1460652193088368], [1.0797036497808554], [0.505661770727738], [-0.48090072085766017], [-1.252553872018402], [0.4045971653908204], [-0.3656770050240939], [0.49876539710315754], [0.5100372528468001], [-1.1325996374386667], [-0.15806637760760558], [1.2254197045545647], [1.4990749916638022]], [[-1.293865990878731], [-0.19161220868082196], [-1.7293265772418682], [-0.34100990226282824], [2.013818204282535], [1.1841352044564308], [1.1398833203994083], [-0.7364583363638436], [1.5174460948277864], [1.0982929100485515], [0.5003899244358051], [-0.18610876360715342], [-0.267583722200594], [0.15394359993185036], [-0.9465626074894548], [0.996124734313451], [0.41538271449433567], [-0.6962215042287834], [0.45224554638225356], [-1.5632858558450407], [-0.021199444605690305], [1.3331028773926923], [1.2141485777053072], [-0.999622337418622], [-1.0445330690178067], [-1.9039309895088365], [0.7889316402251707], [-0.3409655144180022], [-0.8464951179557654], [-0.06539237106569926], [1.2492945192888083], [0.2895771676332666], [0.441200906856432], [-0.5781721157180304], [-0.45126555268880747], [1.296319688119919], [0.5009314872700712], [-0.6254479601111634], [0.8470438907041168], [0.3953957350983823], [-0.25432451801645456], [-1.1214641064949233], [-0.5230765852888577], [-0.8906948056895289], [-0.8935573309881503], [0.5965446518174103], [-0.25988282889794206], [-0.5082138705358975], [0.5240918464930765], [-0.756750856693884], [-1.2187454245353635], [0.5476650329247453], [2.2487082750081533], [0.2377797912067532], [-0.16506328458915326], [-0.881645139680074], [-1.4176837074211723], [1.9565387427832213], [-1.3972630882237596], [-0.15034440650818534], [-0.24513661921805194], [0.09748438569198878], [-1.0427759815443058], [1.7761635478798348]], [[-1.1126587909331265], [0.06295638380477055], [-0.39913176751765633], [0.7673515819975414], [0.99457902233907], [-0.6738908784828866], [-0.6537596139770431], [-1.7503980952712364], [0.566649626380161], [-0.30329557143182356], [0.20141158589226946], [-0.8671505417892345], [-1.721890248776769], [-1.0536878587529863], [1.1718644653869443], [0.05456336746045995], [1.6952868732186517], [-0.17808884474046002], [-0.26601168063656205], [-3.0844751763483482], [-1.222062405153709], [0.9858470502827072], [-0.8213586721729754], [0.8719123621253111], [-0.3370605595990901], [1.0137457352033246], [-0.7487669599631658], [0.20110386903297925], [-0.9062209866081784], [1.4054917869292514], [-0.19523483917036974], [-1.310374554103916], [0.6768476393336553], [-0.4129886193207968], [0.048033294216388085], [-0.5103626125003565], [-0.3577937485893345], [-0.48626134021987594], [-0.08986875067420154], [0.8738787793451165], [-1.5572114759734885], [-0.5666910517974469], [-1.8441151221049232], [3.2940506797882008], [0.2820805500354158], [0.5188526368059182], [-1.065363926733201], [-1.0131977599390027], [0.9919522149595049], [-0.036991309222560144], [-0.447270766366558], [-0.4099901286592176], [-2.020489505495433], [-1.507782938314512], [0.19552134190827886], [0.30534096901037727], [-1.1546609610980578], [0.900175375638356], [-0.48616121690256703], [-0.4231376650609985], [-0.6334525804627125], [0.28346862377008863], [-1.6217132068162714], [-0.2975585420223319]], [[0.9031347224874144]]]