[[[-1.3895823035514463], [2.669442364048508], [-0.4681173449879342], [-1.49768855128879], [2.3695310789215425], [0.368601843731294], [1.5237421140352903], [1.226120377325188], [-0.2946620843542681], [-1.1936663768393798], [1.7312262440764834], [-0.5146546830189902], [-1.9447030403223313], [-3.1764746227316296], [1.488693714857498], [0.34912491963118647], [0.4605707363876665], [-0.8360679940170834], [0.985138787248881], [-0.7246961818858846], [-0.3426179989277673], [-0.18165090329450884], [0.3165451462100876], [0.3550819453751903], [0.4150887396633758], [-0.49077843298638], [-3.516975292725167], [-2.248808299782386], [-0.5299403598424804], [1.4469969687050908], [1.2205943364449356], [-0.36466955865909617], [0.4144465933234699], [-0.15117611387863994], [-1.5675554537544425], [0.10525598665490456], [-1.0314237907052548], [0.10928489104102382], [0.47888487503932176], [0.16839366323733693], [0.15496374056567602], [-1.4594063978616518], [0.6625623473765775], [-1.829559542282138], [1.1172299764949225], [-0.6154197078229432], [1.205053242633154], [0.28517189524101433], [1.1331406779373814], [0.12207784282206095], [-0.6378782845445471], [-1.1460652193088368], [1.079495894610357], [0.5059333750593694], [-0.48090072085766017], [-1.252553872018402], [0.4047133132623438], [-0.3656770050240939], [0.49859801716164664], [0.5104285141536982], [-1.1325996374386667], [-0.15790690112186218], [1.2252966221140038], [1.4993255447556202]], [[-1.293865990878731], [-0.19173239486413138], [-1.7293265772418682], [-0.3410098515274141], [2.01362633630274], [1.1840926737918764], [1.1397952814427743], [-0.7364583363638436], [1.5175101687166577], [1.0984160196561847], [0.5005314165475846], [-0.18625065905703891], [-0.2675917384870212], [0.15382399523606205], [-0.9466996696791404], [0.9950879674822668], [0.415440584088141], [-0.6962215042287834], [0.45217802744058544], [-1.5632858558450407], [-0.021199444605690305], [1.3329170287966412], [1.2139359841484794], [-0.999622337418622], [-1.0445330690178067], [-1.9039309895088365], [0.788887118649599], [-0.3409655144180022], [-0.8464951179557654], [-0.06538400014967326], [1.2491695877907076], [0.28902507088217366], [0.4411934263704441], [-0.5781721157180304], [-0.45124875200251163], [1.2962295640690062], [0.5004706727993125], [-0.6254479321418656], [0.8470476600812494], [0.39517582432015286], [-0.25475460579358866], [-1.1214641064949233], [-0.5231149845344595], [-0.8906948056895289], [-0.8935573309881503], [0.5963593683052597], [-0.25988282889794206], [-0.5081160370189883], [0.5240918464930765], [-0.7567476479216731], [-1.218733043554573], [0.5475723842420887], [2.2483606755691485], [0.2377797912067532], [-0.16509238365301518], [-0.881645139680074], [-1.4176837074211723], [1.956438334733917], [-1.3972630882237596], [-0.15034440650818534], [-0.24513661921805194], [0.0975716548037066], [-1.0427759815443058], [1.7760619277240237]], [[-1.1126587909331265], [0.06295638380477055], [-0.39892771483983835], [0.7674594461136686], [0.9946855556530018], [-0.673998716513991], [-0.6537596139770431], [-1.7503980952712364], [0.5664069984881588], [-0.3032955714323701], [0.2014115783338948], [-0.8671030477624124], [-1.721890248776769], [-1.0536878587529863], [1.1718644653869443], [0.05459323539271729], [1.695241188002115], [-0.17826713041106906], [-0.2659497644318294], [-3.0844751763483482], [-1.222062405153709], [0.9859039569877474], [-0.8213586721729754], [0.8719102731175532], [-0.33706055959901016], [1.0136227193243186], [-0.7487669599631658], [0.2011123425526549], [-0.9062209866081784], [1.4053588389045983], [-0.19564541772727162], [-1.310374554103916], [0.676843993475981], [-0.4132823793668183], [0.04784294640993057], [-0.5104527414974679], [-0.35780830030162425], [-0.4862613470640505], [-0.08986875067420154], [0.8736170209651856], [-1.5572114760548579], [-0.5666910519969071], [-1.8441151221049232], [3.2940455185003654], [0.2820105135073971], [0.5188613368489835], [-1.065363926733201], [-1.0131977599390027], [0.9917042622390109], [-0.03679610125050668], [-0.4472643279779484], [-0.4098228101707767], [-2.020489505495433], [-1.507782938314512], [0.19552134190827886], [0.30524990410212155], [-1.1546609604253701], [0.900205475853658], [-0.48616121690256703], [-0.4231376650609985], [-0.6334525804627125], [0.28339719739006847], [-1.6217132068162714], [-0.2975926193613331]], [[0.9029769231632239]]]